{"learner":{"attributes":{"scikit_learn":"{\"_estimator_type\": \"classifier\"}"},"feature_names":[],"feature_types":[],"gradient_booster":{"model":{"gbtree_model_param":{"num_parallel_tree":"1","num_trees":"300"},"iteration_indptr":[0,1,2,3,4,5,6,7,8,9,10,11,12,13,14,15,16,17,18,19,20,21,22,23,24,25,26,27,28,29,30,31,32,33,34,35,36,37,38,39,40,41,42,43,44,45,46,47,48,49,50,51,52,53,54,55,56,57,58,59,60,61,62,63,64,65,66,67,68,69,70,71,72,73,74,75,76,77,78,79,80,81,82,83,84,85,86,87,88,89,90,91,92,93,94,95,96,97,98,99,100,101,102,103,104,105,106,107,108,109,110,111,112,113,114,115,116,117,118,119,120,121,122,123,124,125,126,127,128,129,130,131,132,133,134,135,136,137,138,139,140,141,142,143,144,145,146,147,148,149,150,151,152,153,154,155,156,157,158,159,160,161,162,163,164,165,166,167,168,169,170,171,172,173,174,175,176,177,178,179,180,181,182,183,184,185,186,187,188,189,190,191,192,193,194,195,196,197,198,199,200,201,202,203,204,205,206,207,208,209,210,211,212,213,214,215,216,217,218,219,220,221,222,223,224,225,226,227,228,229,230,231,232,233,234,235,236,237,238,239,240,241,242,243,244,245,246,247,248,249,250,251,252,253,254,255,256,257,258,259,260,261,262,263,264,265,266,267,268,269,270,271,272,273,274,275,276,277,278,279,280,281,282,283,284,285,286,287,288,289,290,291,292,293,294,295,296,297,298,299,300],"tree_info":[0,0,0,0,0,0,0,0,0,0,0,0,0,0,0,0,0,0,0,0,0,0,0,0,0,0,0,0,0,0,0,0,0,0,0,0,0,0,0,0,0,0,0,0,0,0,0,0,0,0,0,0,0,0,0,0,0,0,0,0,0,0,0,0,0,0,0,0,0,0,0,0,0,0,0,0,0,0,0,0,0,0,0,0,0,0,0,0,0,0,0,0,0,0,0,0,0,0,0,0,0,0,0,0,0,0,0,0,0,0,0,0,0,0,0,0,0,0,0,0,0,0,0,0,0,0,0,0,0,0,0,0,0,0,0,0,0,0,0,0,0,0,0,0,0,0,0,0,0,0,0,0,0,0,0,0,0,0,0,0,0,0,0,0,0,0,0,0,0,0,0,0,0,0,0,0,0,0,0,0,0,0,0,0,0,0,0,0,0,0,0,0,0,0,0,0,0,0,0,0,0,0,0,0,0,0,0,0,0,0,0,0,0,0,0,0,0,0,0,0,0,0,0,0,0,0,0,0,0,0,0,0,0,0,0,0,0,0,0,0,0,0,0,0,0,0,0,0,0,0,0,0,0,0,0,0,0,0,0,0,0,0,0,0,0,0,0,0,0,0,0,0,0,0,0,0,0,0,0,0,0,0,0,0,0,0,0,0,0,0,0,0,0,0,0,0,0,0,0,0],"trees":[{"base_weights":[2.4259713E-2,-7.799601E-1,3.733902E-1,-2.7818188E-1,-1.3402645E-1,6.874518E-1,-2.4389838E-1,-9.364899E-1,5.538368E-1,9.778171E-1,-4.9649364E-1,-8.076648E-1,6.942299E-1,-1.3991214E0,5.626646E-2,-8.018698E-2,1.0648228E0,-1.5959848E-2,1.0463556E0,-1.1817399E0,4.2922983E-1,-1.1402404E0,7.0582844E-2,-5.8777932E-2,1.1475968E0,-1.3029368E-1,-1.5959848E-2,1.0694415E-1,1.0361005E-2,9.099828E-2,-1.5536785E-2,-1.1666441E-1,-3.4432374E-2,7.0582844E-2,-1.5959848E-2,-1.1142082E-1,2.2576429E-2,2.2576429E-2,1.0694415E-1],"categories":[],"categories_nodes":[],"categories_segments":[],"categories_sizes":[],"default_left":[0,0,0,0,0,0,0,0,0,0,0,0,0,0,0,0,0,0,0,0,0,0,0,0,0,0,0,0,0,0,0,0,0,0,0,0,0,0,0],"id":0,"left_children":[1,3,5,7,-1,9,11,13,15,17,19,21,23,25,-1,-1,27,-1,29,31,33,35,-1,-1,37,-1,-1,-1,-1,-1,-1,-1,-1,-1,-1,-1,-1,-1,-1],"loss_changes":[3.4381866E1,1.5746502E1,1.6871838E1,1.4841883E1,0E0,2.0430044E1,1.6630117E1,1.2864776E1,1.1297827E1,4.1486053E0,8.566686E0,1.2434903E1,9.040033E0,2.6856804E0,0E0,0E0,2.124774E0,0E0,5.427498E0,4.2073822E-1,2.1046302E0,6.7741356E0,0E0,0E0,8.606882E-1,0E0,0E0,0E0,0E0,0E0,0E0,0E0,0E0,0E0,0E0,0E0,0E0,0E0,0E0],"parents":[2147483647,0,0,1,1,2,2,3,3,5,5,6,6,7,7,8,8,9,9,10,10,11,11,12,12,13,13,16,16,18,18,19,19,20,20,21,21,24,24],"right_children":[2,4,6,8,-1,10,12,14,16,18,20,22,24,26,-1,-1,28,-1,30,32,34,36,-1,-1,38,-1,-1,-1,-1,-1,-1,-1,-1,-1,-1,-1,-1,-1,-1],"split_conditions":[-2.7324358E-1,-2.8009593E-1,5.734481E-1,-1.3618678E-1,-1.3402645E-1,3.5328925E-1,3.381822E-1,1.1183757E0,-1.647834E0,-1.2785178E0,1.4717871E0,1.408498E0,-5.1256925E-1,-4.6661544E-1,5.626646E-2,-8.018698E-2,-3.8107297E-1,-1.5959848E-2,1.3804892E0,-9.786693E-2,-7.2357374E-1,1.351702E0,7.0582844E-2,-5.8777932E-2,6.1197835E-1,-1.3029368E-1,-1.5959848E-2,1.0694415E-1,1.0361005E-2,9.099828E-2,-1.5536785E-2,-1.1666441E-1,-3.4432374E-2,7.0582844E-2,-1.5959848E-2,-1.1142082E-1,2.2576429E-2,2.2576429E-2,1.0694415E-1],"split_indices":[7,12,7,25,0,27,4,4,4,4,27,19,2,2,0,0,7,0,22,4,19,17,0,0,7,0,0,0,0,0,0,0,0,0,0,0,0,0,0],"split_type":[0,0,0,0,0,0,0,0,0,0,0,0,0,0,0,0,0,0,0,0,0,0,0,0,0,0,0,0,0,0,0,0,0,0,0,0,0,0,0],"sum_hessian":[1.1954126E2,3.5539295E1,8.400197E1,2.4107073E1,1.143222E1,5.566994E1,2.8332024E1,1.3420432E1,1.0686641E1,4.4983303E1,1.0686641E1,1.789391E1,1.0438114E1,1.0686641E1,2.7337918E0,2.2367387E0,8.449902E0,2.2367387E0,4.2746563E1,5.964637E0,4.722004E0,1.5408645E1,2.4852653E0,2.2367387E0,8.201375E0,8.449902E0,2.2367387E0,5.964637E0,2.4852653E0,4.001277E1,2.7337918E0,3.230845E0,2.7337918E0,2.4852653E0,2.2367387E0,1.3171906E1,2.2367387E0,2.2367387E0,5.964637E0],"tree_param":{"num_deleted":"0","num_feature":"28","num_nodes":"39","size_leaf_vector":"1"}},{"base_weights":[-1.701979E-2,-1.4093034E0,1.6655456E-1,-4.1668516E-2,-1.317858E-1,4.664949E-1,-5.542017E-1,2.1903951E-1,1.0481417E0,-1.1349802E0,1.4135957E-1,-2.6608441E-2,1.00517556E-1,2.2614593E-2,1.1996764E0,-1.888966E-1,-1.4329959E0,-6.903862E-1,7.365501E-1,3.7936118E-2,-4.1149557E-2,1.2008126E-1,2.438146E-2,2.778094E-2,-5.412852E-2,-1.344593E-1,-5.301597E-2,4.5987524E-2,-1.1616063E-1,-1.5083503E-2,8.446425E-2],"categories":[],"categories_nodes":[],"categories_segments":[],"categories_sizes":[],"default_left":[0,0,0,0,0,0,0,0,0,0,0,0,0,0,0,0,0,0,0,0,0,0,0,0,0,0,0,0,0,0,0],"id":1,"left_children":[1,3,5,-1,-1,7,9,11,13,15,17,19,-1,-1,21,23,25,27,29,-1,-1,-1,-1,-1,-1,-1,-1,-1,-1,-1,-1],"loss_changes":[3.0644793E1,1.4508095E0,2.3200144E1,0E0,0E0,1.0389284E1,1.3108732E1,1.417713E1,1.8953514E0,4.357378E0,8.509109E0,1.15630665E1,0E0,0E0,3.9322948E0,1.9524641E0,5.7141113E-1,8.303982E0,3.3125043E0,0E0,0E0,0E0,0E0,0E0,0E0,0E0,0E0,0E0,0E0,0E0,0E0],"parents":[2147483647,0,0,1,1,2,2,5,5,6,6,7,7,8,8,9,9,10,10,11,11,14,14,15,15,16,16,17,17,18,18],"right_children":[2,4,6,-1,-1,8,10,12,14,16,18,20,-1,-1,22,24,26,28,30,-1,-1,-1,-1,-1,-1,-1,-1,-1,-1,-1,-1],"split_conditions":[-1.1371967E0,-8.471114E-1,2.320424E-1,-4.1668516E-2,-1.317858E-1,5.575367E-1,2.0256257E-1,6.315109E-1,-6.069835E-1,-1.7821367E-1,8.306448E-2,-4.8849458E-1,1.00517556E-1,2.2614593E-2,4.5384133E-1,5.227544E-3,2.1043506E-1,-1.5153608E-1,-9.7751427E-1,3.7936118E-2,-4.1149557E-2,1.2008126E-1,2.438146E-2,2.778094E-2,-5.412852E-2,-1.344593E-1,-5.301597E-2,4.5987524E-2,-1.1616063E-1,-1.5083503E-2,8.446425E-2],"split_indices":[5,19,8,0,0,19,5,2,17,2,9,19,0,0,2,17,17,17,19,0,0,0,0,0,0,0,0,0,0,0,0],"split_type":[0,0,0,0,0,0,0,0,0,0,0,0,0,0,0,0,0,0,0,0,0,0,0,0,0,0,0,0,0,0,0],"sum_hessian":[1.165356E2,1.2472159E1,1.0406344E2,3.734621E0,8.737538E0,7.395515E1,3.0108292E1,5.345156E1,2.050359E1,1.5969913E1,1.4138379E1,4.4321922E1,9.129636E0,4.207587E0,1.6296003E1,4.492932E0,1.147698E1,5.727121E0,8.411259E0,2.178786E1,2.2534061E1,1.1347371E1,4.948632E0,2.2482579E0,2.2446742E0,7.2443085E0,4.2326717E0,2.2409463E0,3.4861746E0,2.2352157E0,6.176043E0],"tree_param":{"num_deleted":"0","num_feature":"28","num_nodes":"31","size_leaf_vector":"1"}},{"base_weights":[4.8618548E-2,-1.4082656E0,2.2378735E-1,-1.251188E-1,-2.9683057E-2,4.939196E-1,-4.6707705E-1,8.1712E-1,-5.7184E-1,-1.1612729E0,5.767142E-1,5.9712094E-1,1.3021728E0,6.527806E-2,-8.5524476E-1,2.5958803E-2,-1.3920445E0,1.0983887E0,-4.2363632E-2,8.012555E-2,1.6788317E-2,1.3820216E-2,1.18637405E-1,-9.17868E-2,3.1843014E-2,-1.19515054E-1,-3.7925854E-2,2.8021464E-2,1.0987458E-1],"categories":[],"categories_nodes":[],"categories_segments":[],"categories_sizes":[],"default_left":[0,0,0,0,0,0,0,0,0,0,0,0,0,0,0,0,0,0,0,0,0,0,0,0,0,0,0,0,0],"id":2,"left_children":[1,3,5,-1,-1,7,9,11,13,15,17,19,21,-1,23,-1,25,27,-1,-1,-1,-1,-1,-1,-1,-1,-1,-1,-1],"loss_changes":[3.0864645E1,1.0319252E0,2.0518799E1,0E0,0E0,2.7775724E1,2.3559727E1,5.147457E0,8.556714E0,7.3679256E0,8.631294E0,6.587125E0,3.0450172E0,0E0,6.8513727E0,0E0,3.273735E-1,1.0851717E0,0E0,0E0,0E0,0E0,0E0,0E0,0E0,0E0,0E0,0E0,0E0],"parents":[2147483647,0,0,1,1,2,2,5,5,6,6,7,7,8,8,9,9,10,10,11,11,12,12,14,14,16,16,17,17],"right_children":[2,4,6,-1,-1,8,10,12,14,16,18,20,22,-1,24,-1,26,28,-1,-1,-1,-1,-1,-1,-1,-1,-1,-1,-1],"split_conditions":[-1.1943558E0,-4.8302534E-1,2.320424E-1,-1.251188E-1,-2.9683057E-2,5.972097E-1,3.7465808E-1,6.56495E-1,-7.635912E-1,-1.0138793E0,1.776809E-1,-6.2123203E-1,-1.1243832E0,6.527806E-2,1.1937023E0,2.5958803E-2,2.9195929E0,-3.9959237E-1,-4.2363632E-2,8.012555E-2,1.6788317E-2,1.3820216E-2,1.18637405E-1,-9.17868E-2,3.1843014E-2,-1.19515054E-1,-3.7925854E-2,2.8021464E-2,1.0987458E-1],"split_indices":[5,7,8,0,0,7,7,19,25,19,25,19,4,0,19,0,10,19,0,0,0,0,0,0,0,0,0,0,0],"split_type":[0,0,0,0,0,0,0,0,0,0,0,0,0,0,0,0,0,0,0,0,0,0,0,0,0,0,0,0,0],"sum_hessian":[1.1805442E2,1.1476225E1,1.0657819E2,9.232028E0,2.2441978E0,7.703097E1,2.9547232E1,5.944696E1,1.7584005E1,1.7701466E1,1.1845765E1,4.3341743E1,1.6105219E1,2.4440424E0,1.5139962E1,2.2396512E0,1.5461815E1,8.118448E0,3.7273169E0,1.9910402E1,2.3431341E1,2.7034197E0,1.3401798E1,1.24459095E1,2.6940527E0,1.2971867E1,2.4899483E0,3.1968434E0,4.921605E0],"tree_param":{"num_deleted":"0","num_feature":"28","num_nodes":"29","size_leaf_vector":"1"}},{"base_weights":[-6.949488E-2,-1.3374918E0,1.0556854E-1,-1.2192941E-1,-1.8488757E-2,3.5414502E-1,-5.13485E-1,6.7156005E-1,-6.2173206E-1,-1.1012924E0,3.0128536E-1,4.712575E-1,1.1121076E-1,-1.0041728E0,5.10068E-1,7.0083505E-3,-1.2777457E0,8.681531E-1,-6.857304E-1,1.860533E-2,8.681952E-2,-1.1374964E-1,3.894234E-2,8.6027466E-2,-1.8858947E-2,-1.1064053E-1,-2.7154814E-2,9.032268E-2,-0E0,-1.1253677E-2,-7.4337594E-2],"categories":[],"categories_nodes":[],"categories_segments":[],"categories_sizes":[],"default_left":[0,0,0,0,0,0,0,0,0,0,0,0,0,0,0,0,0,0,0,0,0,0,0,0,0,0,0,0,0,0,0],"id":3,"left_children":[1,3,5,-1,-1,7,9,11,13,15,17,19,-1,21,23,-1,25,27,29,-1,-1,-1,-1,-1,-1,-1,-1,-1,-1,-1,-1],"loss_changes":[2.7254313E1,2.370741E0,1.685742E1,0E0,0E0,2.4784431E1,1.5618086E1,7.414648E0,9.40492E0,4.196579E0,8.894119E0,6.6727448E0,0E0,1.0722123E1,2.9681134E0,0E0,7.4313545E-1,2.3045607E0,4.9040508E-1,0E0,0E0,0E0,0E0,0E0,0E0,0E0,0E0,0E0,0E0,0E0,0E0],"parents":[2147483647,0,0,1,1,2,2,5,5,6,6,7,7,8,8,9,9,10,10,11,11,13,13,14,14,16,16,17,17,18,18],"right_children":[2,4,6,-1,-1,8,10,12,14,16,18,20,-1,22,24,-1,26,28,30,-1,-1,-1,-1,-1,-1,-1,-1,-1,-1,-1,-1],"split_conditions":[-1.1943558E0,-4.8209706E-1,2.7978033E-1,-1.2192941E-1,-1.8488757E-2,5.972097E-1,3.7465808E-1,8.7188876E-1,1.0659297E0,-9.2605835E-1,1.4437704E-1,6.56495E-1,1.1121076E-1,4.5384133E-1,-4.606231E-1,7.0083505E-3,1.0028872E0,1.2763059E0,2.1448216E-1,1.860533E-2,8.681952E-2,-1.1374964E-1,3.894234E-2,8.6027466E-2,-1.8858947E-2,-1.1064053E-1,-2.7154814E-2,9.032268E-2,-0E0,-1.1253677E-2,-7.4337594E-2],"split_indices":[5,7,8,0,0,7,7,2,17,19,25,19,0,2,2,0,19,0,0,0,0,0,0,0,0,0,0,0,0,0,0],"split_type":[0,0,0,0,0,0,0,0,0,0,0,0,0,0,0,0,0,0,0,0,0,0,0,0,0,0,0,0,0,0,0],"sum_hessian":[1.197692E2,1.3390685E1,1.06378525E2,1.0895997E1,2.4946878E0,7.647426E1,2.990426E1,5.8135323E1,1.8338936E1,1.7136536E1,1.2767725E1,4.7513767E1,1.0621555E1,1.3899672E1,4.4392653E0,2.2390394E0,1.4897497E1,8.289064E0,4.478661E0,3.5819695E1,1.1694075E1,1.0964488E1,2.9351835E0,2.2245152E0,2.21475E0,1.2659826E1,2.237671E0,6.095788E0,2.1932764E0,2.240505E0,2.238156E0],"tree_param":{"num_deleted":"0","num_feature":"28","num_nodes":"31","size_leaf_vector":"1"}},{"base_weights":[-3.019035E-2,-6.781372E-1,2.535602E-1,-1.0182518E0,7.838385E-1,5.8441794E-1,-3.726655E-1,-1.1889895E0,3.9881814E-2,8.4788114E-2,2.6697665E-2,8.197847E-1,-2.8635246E-1,-6.2868214E-1,9.3628846E-2,-7.0576724E-3,-1.2711186E0,9.1113377E-1,-2.0402407E-2,4.0115142E-1,-9.0707965E-2,-1.0094943E0,1.24665216E-1,-1.1378072E-1,-1.9079816E-2,-3.737786E-2,8.049937E-2,-1.6992E-2,7.8310266E-2,-9.980414E-2,2.577094E-2,-7.785147E-2,5.2635964E-2],"categories":[],"categories_nodes":[],"categories_segments":[],"categories_sizes":[],"default_left":[0,0,0,0,0,0,0,0,0,0,0,0,0,0,0,0,0,0,0,0,0,0,0,0,0,0,0,0,0,0,0,0,0],"id":4,"left_children":[1,3,5,7,9,11,13,15,-1,-1,-1,17,19,21,-1,-1,23,25,-1,27,-1,29,31,-1,-1,-1,-1,-1,-1,-1,-1,-1,-1],"loss_changes":[2.3146229E1,2.0294367E1,1.8456568E1,9.200542E0,3.2794952E-1,1.2267057E1,1.3305773E1,2.3275185E0,0E0,0E0,0E0,4.9344482E0,8.525956E0,8.207191E0,0E0,0E0,3.52219E0,6.3760223E0,0E0,3.3681338E0,0E0,6.595949E0,7.092495E0,0E0,0E0,0E0,0E0,0E0,0E0,0E0,0E0,0E0,0E0],"parents":[2147483647,0,0,1,1,2,2,3,3,4,4,5,5,6,6,7,7,11,11,12,12,13,13,16,16,17,17,19,19,21,21,22,22],"right_children":[2,4,6,8,10,12,14,16,-1,-1,-1,18,20,22,-1,-1,24,26,-1,28,-1,30,32,-1,-1,-1,-1,-1,-1,-1,-1,-1,-1],"split_conditions":[-2.7324358E-1,1.2776208E-1,5.734481E-1,1.3104761E0,-6.527192E-1,1.8594094E-1,1.6109654E0,-1.367284E0,3.9881814E-2,8.4788114E-2,2.6697665E-2,1.3804892E0,6.2215364E-1,3.381822E-1,9.3628846E-2,-7.0576724E-3,1.0028872E0,-1.2785178E0,-2.0402407E-2,1.0572436E-1,-9.0707965E-2,1.1963941E0,-4.407137E-1,-1.1378072E-1,-1.9079816E-2,-3.737786E-2,8.049937E-2,-1.6992E-2,7.8310266E-2,-9.980414E-2,2.577094E-2,-7.785147E-2,5.2635964E-2],"split_indices":[7,5,7,4,7,8,17,23,0,0,0,22,0,4,0,0,19,4,0,5,0,19,2,0,0,0,0,0,0,0,0,0,0],"split_type":[0,0,0,0,0,0,0,0,0,0,0,0,0,0,0,0,0,0,0,0,0,0,0,0,0,0,0,0,0,0,0,0,0],"sum_hessian":[1.2275997E2,3.685921E1,8.590076E1,3.0327478E1,6.531731E0,5.6375416E1,2.9525345E1,2.760965E1,2.7178273E0,2.6516542E0,3.880077E0,4.453925E1,1.1836164E1,2.614162E1,3.3837235E0,2.217506E0,2.5392145E1,4.134665E1,3.1926026E0,6.905946E0,4.9302187E0,1.7113554E1,9.028067E0,2.1571918E1,3.8202264E0,2.2221346E0,3.912451E1,3.7251923E0,3.1807537E0,1.4662182E1,2.4513721E0,2.4859028E0,6.5421643E0],"tree_param":{"num_deleted":"0","num_feature":"28","num_nodes":"33","size_leaf_vector":"1"}},{"base_weights":[-2.390262E-2,-7.100556E-1,2.612057E-1,-1.1052917E0,8.7990385E-1,5.263007E-1,-2.3710509E-1,-1.2044442E0,3.6314207E-3,1.3588191E-2,8.671829E-2,7.6498973E-1,-3.2456934E-1,-1.1605457E-1,5.86723E-2,-1.3261675E0,5.285768E-4,-2.7850349E-2,8.707338E-1,3.2540637E-1,-9.5546015E-2,8.799213E-2,-3.2370362E-1,-1.1391654E-1,-3.727878E-2,7.637954E-2,-1.0732701E-2,-1.1511505E-2,8.036188E-2,-5.230115E-2,8.654981E-2],"categories":[],"categories_nodes":[],"categories_segments":[],"categories_sizes":[],"default_left":[0,0,0,0,0,0,0,0,0,0,0,0,0,0,0,0,0,0,0,0,0,0,0,0,0,0,0,0,0,0,0],"id":5,"left_children":[1,3,5,7,9,11,13,15,-1,-1,-1,17,19,-1,21,23,-1,-1,25,27,-1,-1,29,-1,-1,-1,-1,-1,-1,-1,-1],"loss_changes":[2.4067934E1,2.4189608E1,1.1674631E1,3.581562E0,7.54653E-1,1.2036897E1,1.1403033E1,4.1899185E0,0E0,0E0,0E0,5.829748E0,8.299359E0,0E0,1.1090834E1,9.198761E-1,0E0,0E0,3.8037243E0,3.1192682E0,0E0,0E0,1.0454072E1,0E0,0E0,0E0,0E0,0E0,0E0,0E0,0E0],"parents":[2147483647,0,0,1,1,2,2,3,3,4,4,5,5,6,6,7,7,11,11,12,12,14,14,15,15,18,18,19,19,22,22],"right_children":[2,4,6,8,10,12,14,16,-1,-1,-1,18,20,-1,22,24,-1,-1,26,28,-1,-1,30,-1,-1,-1,-1,-1,-1,-1,-1],"split_conditions":[-2.7324358E-1,1.2776208E-1,5.734481E-1,1.3104761E0,-2.3067836E-1,1.8594094E-1,-9.4355303E-1,1.5943679E0,3.6314207E-3,1.3588191E-2,8.671829E-2,-1.1243832E0,6.2215364E-1,-1.1605457E-1,-3.056699E-1,5.2650595E-1,5.285768E-4,-2.7850349E-2,1.3804892E0,3.7465808E-1,-9.5546015E-2,8.799213E-2,1.351702E0,-1.1391654E-1,-3.727878E-2,7.637954E-2,-1.0732701E-2,-1.1511505E-2,8.036188E-2,-5.230115E-2,8.654981E-2],"split_indices":[7,5,7,4,22,8,19,26,0,0,0,4,0,0,25,23,0,0,22,7,0,0,17,0,0,0,0,0,0,0,0],"split_type":[0,0,0,0,0,0,0,0,0,0,0,0,0,0,0,0,0,0,0,0,0,0,0,0,0,0,0,0,0,0,0],"sum_hessian":[1.1987758E2,3.463607E1,8.524151E1,2.8156897E1,6.479172E0,5.5717125E1,2.9524384E1,2.5938637E1,2.2182612E0,2.1694233E0,4.309749E0,4.3721222E1,1.1995901E1,4.7041883E0,2.4820194E1,2.3515112E1,2.4235232E0,3.4127553E0,4.0308468E1,7.3368416E0,4.6590595E0,5.98084E0,1.8839354E1,2.0127554E1,3.3875594E0,3.7359524E1,2.9489415E0,4.950648E0,2.3861935E0,1.596409E1,2.8752635E0],"tree_param":{"num_deleted":"0","num_feature":"28","num_nodes":"31","size_leaf_vector":"1"}},{"base_weights":[-2.524429E-2,-1.2530993E0,1.2596123E-1,-1.126157E-1,-1.9761806E-2,3.8177556E-1,-4.89447E-1,6.059653E-1,-3.167988E-1,-1.03073E0,1.7814183E-1,4.2382413E-1,9.3679205E-2,-6.919759E-1,4.5184234E-1,-1.1440244E0,-2.0958189E-2,-6.8457365E-2,4.978191E-1,4.3974433E-2,-6.5174714E-2,-8.483227E-2,2.9776905E-2,-3.2010224E-2,7.6826826E-2,-3.174786E-2,-1.0706864E-1,6.488384E-2,-3.5584074E-2],"categories":[],"categories_nodes":[],"categories_segments":[],"categories_sizes":[],"default_left":[0,0,0,0,0,0,0,0,0,0,0,0,0,0,0,0,0,0,0,0,0,0,0,0,0,0,0,0,0],"id":6,"left_children":[1,3,5,-1,-1,7,9,11,13,15,17,19,-1,21,23,25,-1,-1,27,-1,-1,-1,-1,-1,-1,-1,-1,-1,-1],"loss_changes":[2.2620884E1,1.3912506E0,1.7287216E1,0E0,0E0,1.2425281E1,1.2026155E1,5.1838303E0,6.162628E0,9.890156E-1,5.7758956E0,8.005299E0,0E0,6.107471E0,3.781378E0,1.2432079E0,0E0,0E0,4.409234E0,0E0,0E0,0E0,0E0,0E0,0E0,0E0,0E0,0E0,0E0],"parents":[2147483647,0,0,1,1,2,2,5,5,6,6,7,7,8,8,9,9,10,10,11,11,13,13,14,14,15,15,18,18],"right_children":[2,4,6,-1,-1,8,10,12,14,16,18,20,-1,22,24,26,-1,-1,28,-1,-1,-1,-1,-1,-1,-1,-1,-1,-1],"split_conditions":[-1.289299E0,1.002176E0,2.320424E-1,-1.126157E-1,-1.9761806E-2,5.734481E-1,1.2776208E-1,6.315109E-1,1.5478347E-1,2.1634789E0,-1.3295764E-1,1.01095E0,9.3679205E-2,4.6029449E-1,1.2319277E-1,8.9952564E-1,-2.0958189E-2,-6.8457365E-2,1.9518682E0,4.3974433E-2,-6.5174714E-2,-8.483227E-2,2.9776905E-2,-3.2010224E-2,7.6826826E-2,-3.174786E-2,-1.0706864E-1,6.488384E-2,-3.5584074E-2],"split_indices":[5,23,8,0,0,7,5,2,2,11,4,5,0,19,4,27,0,0,2,0,0,0,0,0,0,0,0,0,0],"split_type":[0,0,0,0,0,0,0,0,0,0,0,0,0,0,0,0,0,0,0,0,0,0,0,0,0,0,0,0,0],"sum_hessian":[1.18459015E2,1.186229E1,1.06596725E2,9.677092E0,2.1851983E0,7.5814095E1,3.078263E1,5.7653625E1,1.816047E1,1.6631563E1,1.4151068E1,4.571809E1,1.1935537E1,1.2391726E1,5.7687435E0,1.3743769E1,2.8877933E0,2.6742654E0,1.1476803E1,4.233141E1,3.3866825E0,9.278692E0,3.1130333E0,2.202128E0,3.5666158E0,3.884877E0,9.858892E0,8.851082E0,2.6257205E0],"tree_param":{"num_deleted":"0","num_feature":"28","num_nodes":"29","size_leaf_vector":"1"}},{"base_weights":[3.6795273E-2,-1.1403192E0,1.8326767E-1,-2.9562963E-2,-1.0188655E-1,4.0811533E-1,-4.436609E-1,6.48716E-1,-3.5057434E-1,-1.0168937E0,2.750622E-1,4.5412388E-1,1.1276208E0,-6.792841E-1,4.0681773E-1,-9.184157E-2,-2.4826307E-2,6.83074E-1,-7.036465E-2,9.185217E-2,1.8315863E-2,9.504581E-3,1.009911E-1,-7.588236E-2,3.672855E-2,-2.4059664E-2,6.93605E-2,1.0648018E-2,8.474355E-2],"categories":[],"categories_nodes":[],"categories_segments":[],"categories_sizes":[],"default_left":[0,0,0,0,0,0,0,0,0,0,0,0,0,0,0,0,0,0,0,0,0,0,0,0,0,0,0,0,0],"id":7,"left_children":[1,3,5,-1,-1,7,9,11,13,15,17,19,21,23,25,-1,-1,27,-1,-1,-1,-1,-1,-1,-1,-1,-1,-1,-1],"loss_changes":[2.014605E1,4.5713615E-1,1.4950847E1,0E0,0E0,1.4529457E1,1.2069609E1,4.619938E0,5.3086596E0,8.046818E-1,7.274236E0,6.497238E0,1.8170319E0,5.080975E0,2.6497116E0,0E0,0E0,1.9318271E0,0E0,0E0,0E0,0E0,0E0,0E0,0E0,0E0,0E0,0E0,0E0],"parents":[2147483647,0,0,1,1,2,2,5,5,6,6,7,7,8,8,9,9,10,10,11,11,12,12,13,13,14,14,17,17],"right_children":[2,4,6,-1,-1,8,10,12,14,16,18,20,22,24,26,-1,-1,28,-1,-1,-1,-1,-1,-1,-1,-1,-1,-1,-1],"split_conditions":[-1.289299E0,-8.471114E-1,2.8148043E-1,-2.9562963E-2,-1.0188655E-1,5.734481E-1,2.0256257E-1,5.575367E-1,3.0510357E-1,3.7465808E-1,2.1643295E0,-8.220513E-1,-1.1110605E0,1.2563299E0,-4.407137E-1,-9.184157E-2,-2.4826307E-2,-3.8295162E-1,-7.036465E-2,9.185217E-2,1.8315863E-2,9.504581E-3,1.009911E-1,-7.588236E-2,3.672855E-2,-2.4059664E-2,6.93605E-2,1.0648018E-2,8.474355E-2],"split_indices":[5,19,8,0,0,7,5,19,4,7,11,2,4,19,2,0,0,19,0,0,0,0,0,0,0,0,0,0,0],"split_type":[0,0,0,0,0,0,0,0,0,0,0,0,0,0,0,0,0,0,0,0,0,0,0,0,0,0,0,0,0],"sum_hessian":[1.1408335E2,1.1422968E1,1.02660385E2,2.628691E0,8.794277E0,7.606335E1,2.6597042E1,5.8014606E1,1.8048737E1,1.4527316E1,1.2069726E1,4.347907E1,1.4535539E1,1.2786216E1,5.2625213E0,1.1343457E1,3.1838584E0,9.4348955E0,2.6348305E0,9.036036E0,3.444303E1,2.1330247E0,1.24025135E1,1.0613895E1,2.1723204E0,2.1930308E0,3.0694904E0,4.765288E0,4.669607E0],"tree_param":{"num_deleted":"0","num_feature":"28","num_nodes":"29","size_leaf_vector":"1"}},{"base_weights":[1.7437112E-4,-9.8743004E-1,1.1542607E-1,-2.208167E-2,-9.374132E-2,-2.1337477E-2,9.7380215E-1,1.4581455E-1,-5.2496916E-1,-0E0,1.2013338E0,4.6668577E-1,-1.1494616E-1,-8.4869564E-1,2.5870556E-1,1.062331E-1,2.8197922E-2,6.6366084E-2,-9.527341E-2,-9.817432E-2,2.6283737E-2,-9.246337E-2,-1.6273765E-2,-5.5214185E-2,7.201682E-2],"categories":[],"categories_nodes":[],"categories_segments":[],"categories_sizes":[],"default_left":[0,0,0,0,0,0,0,0,0,0,0,0,0,0,0,0,0,0,0,0,0,0,0,0,0],"id":8,"left_children":[1,3,5,-1,-1,7,9,11,13,-1,15,17,19,21,23,-1,-1,-1,-1,-1,-1,-1,-1,-1,-1],"loss_changes":[1.3338182E1,9.7461224E-1,1.2536443E1,0E0,0E0,7.9439883E0,3.2889462E0,6.0155354E0,6.3598275E0,0E0,4.0982246E-1,2.0743637E1,2.0391806E1,2.8995333E0,5.786211E0,0E0,0E0,0E0,0E0,0E0,0E0,0E0,0E0,0E0,0E0],"parents":[2147483647,0,0,1,1,2,2,5,5,6,6,7,7,8,8,10,10,11,11,12,12,13,13,14,14],"right_children":[2,4,6,-1,-1,8,10,12,14,-1,16,18,20,22,24,-1,-1,-1,-1,-1,-1,-1,-1,-1,-1],"split_conditions":[-1.289299E0,-8.471114E-1,1.1963941E0,-2.208167E-2,-9.374132E-2,5.2334934E-1,-4.180341E-1,-4.8849458E-1,-3.8295162E-1,-0E0,8.9822197E-1,7.370381E-1,-6.9962144E-1,2.0113132E0,5.775743E-1,1.062331E-1,2.8197922E-2,6.6366084E-2,-9.527341E-2,-9.817432E-2,2.6283737E-2,-9.246337E-2,-1.6273765E-2,-5.5214185E-2,7.201682E-2],"split_indices":[5,19,19,0,0,8,5,19,19,0,2,17,17,12,10,0,0,0,0,0,0,0,0,0,0],"split_type":[0,0,0,0,0,0,0,0,0,0,0,0,0,0,0,0,0,0,0,0,0,0,0,0,0],"sum_hessian":[1.14947556E2,1.0735429E1,1.0421213E2,3.0918005E0,7.643628E0,9.10513E1,1.3160829E1,6.901337E1,2.203793E1,2.748663E0,1.0412166E1,3.0581347E1,3.8432022E1,1.5597813E1,6.440117E0,8.221818E0,2.1903484E0,2.5753006E1,4.8283405E0,1.0264533E1,2.8167486E1,9.6591425E0,5.93867E0,2.4889257E0,3.9511914E0],"tree_param":{"num_deleted":"0","num_feature":"28","num_nodes":"25","size_leaf_vector":"1"}},{"base_weights":[-1.8619426E-2,-1.2245726E-1,1.0307405E-1,-7.1675086E-1,1.2280015E-1,-1.2207265E0,-1.0957031E-1,-0E0,1.0082027E0,-1.08183585E-1,-3.8825113E-2,4.8581338E-1,-8.2888894E-2,6.395964E-1,-2.4666014E-1,1.55684035E-2,9.582286E-2,8.979283E-2,-3.1293773E-3,7.027854E-2,-2.8756501E-2,-1.0081184E-1,-5.152641E-3],"categories":[],"categories_nodes":[],"categories_segments":[],"categories_sizes":[],"default_left":[0,0,0,0,0,0,0,0,0,0,0,0,0,0,0,0,0,0,0,0,0,0,0],"id":9,"left_children":[1,3,-1,5,7,9,11,13,15,-1,-1,17,-1,19,21,-1,-1,-1,-1,-1,-1,-1,-1],"loss_changes":[1.5670945E1,1.5872875E1,0E0,9.387497E0,8.445496E0,4.884262E-1,9.717305E0,1.1164633E1,9.696083E-1,0E0,0E0,3.7783601E0,0E0,5.2222195E0,9.200144E0,0E0,0E0,0E0,0E0,0E0,0E0,0E0,0E0],"parents":[2147483647,0,0,1,1,3,3,4,4,5,5,6,6,7,7,8,8,11,11,13,13,14,14],"right_children":[2,4,-1,6,8,10,12,14,16,-1,-1,18,-1,20,22,-1,-1,-1,-1,-1,-1,-1,-1],"split_conditions":[1.7250592E0,-2.7324358E-1,1.0307405E-1,-2.2889435E-1,1.574986E0,-5.118406E-1,-1.9213088E-1,8.774823E-2,-4.828198E-1,-1.08183585E-1,-3.8825113E-2,-3.8295162E-1,-8.2888894E-2,2.8244242E-2,-9.753863E-1,1.55684035E-2,9.582286E-2,8.979283E-2,-3.1293773E-3,7.027854E-2,-2.8756501E-2,-1.0081184E-1,-5.152641E-3],"split_indices":[4,7,0,25,19,7,8,7,17,0,0,19,0,8,19,0,0,0,0,0,0,0,0],"split_type":[0,0,0,0,0,0,0,0,0,0,0,0,0,0,0,0,0,0,0,0,0,0,0],"sum_hessian":[1.13079956E2,1.06087814E2,6.9921436E0,3.026806E1,7.5819756E1,1.5621442E1,1.464662E1,6.7864044E1,7.9557066E0,1.2068178E1,3.5532632E0,9.285469E0,5.3611507E0,1.817934E1,4.9684708E1,2.1776237E0,5.778083E0,3.5108998E0,5.7745695E0,1.489814E1,3.2811997E0,6.137036E0,4.354767E1],"tree_param":{"num_deleted":"0","num_feature":"28","num_nodes":"23","size_leaf_vector":"1"}},{"base_weights":[1.480885E-3,-3.869933E-1,3.62766E-1,-9.6202826E-1,-1.5424731E-1,1.1108955E0,1.9981866E-1,-3.8884545E-3,-1.0684838E-1,2.2845796E-1,-7.5146216E-1,9.845124E-2,2.7087672E-2,-2.1639658E-2,9.30437E-1,-4.4820808E-2,3.731651E-2,-7.2645776E-2,4.116202E-1,-9.2628375E-2,-3.3636335E-1,6.9266565E-2,-8.0839105E-2,8.7135516E-2,7.845171E-3,-4.0198624E-2,4.7880907E-2,-6.9709904E-2,2.17982E-2,1.8836698E-2,-4.5722894E-2],"categories":[],"categories_nodes":[],"categories_segments":[],"categories_sizes":[],"default_left":[0,0,0,0,0,0,0,0,0,0,0,0,0,0,0,0,0,0,0,0,0,0,0,0,0,0,0,0,0,0,0],"id":10,"left_children":[1,3,5,7,9,11,13,15,-1,17,19,-1,-1,21,23,-1,-1,-1,25,-1,27,29,-1,-1,-1,-1,-1,-1,-1,-1,-1],"loss_changes":[1.6306364E1,7.142313E0,6.8914576E0,5.472724E0,9.835477E0,1.7545033E-1,8.45141E0,1.9661727E0,0E0,6.016817E0,2.0884085E0,0E0,0E0,3.8730273E0,1.3219652E0,0E0,0E0,0E0,4.5412908E0,0E0,3.840054E0,4.2939563E0,0E0,0E0,0E0,0E0,0E0,0E0,0E0,0E0,0E0],"parents":[2147483647,0,0,1,1,2,2,3,3,4,4,5,5,6,6,7,7,9,9,10,10,13,13,14,14,18,18,20,20,21,21],"right_children":[2,4,6,8,10,12,14,16,-1,18,20,-1,-1,22,24,-1,-1,-1,26,-1,28,30,-1,-1,-1,-1,-1,-1,-1,-1,-1],"split_conditions":[8.138464E-2,-7.343184E-1,-8.1745255E-1,-8.058038E-1,-2.8009593E-1,1.961297E0,8.944018E-1,-1.2788314E0,-1.0684838E-1,-1.6705489E0,3.016594E-1,9.845124E-2,2.7087672E-2,1.6641779E0,1.4891338E0,-4.4820808E-2,3.731651E-2,-7.2645776E-2,-1.0818667E0,-9.2628375E-2,-4.3641812E-1,3.749888E-2,-8.0839105E-2,8.7135516E-2,7.845171E-3,-4.0198624E-2,4.7880907E-2,-6.9709904E-2,2.17982E-2,1.8836698E-2,-4.5722894E-2],"split_indices":[5,17,25,19,12,9,19,17,0,5,11,0,0,25,2,0,0,0,19,0,4,23,0,0,0,0,0,0,0,0,0],"split_type":[0,0,0,0,0,0,0,0,0,0,0,0,0,0,0,0,0,0,0,0,0,0,0,0,0,0,0,0,0,0,0],"sum_hessian":[1.1320048E2,5.4362896E1,5.883758E1,1.4185555E1,4.017734E1,8.852716E0,4.9984867E1,4.479624E0,9.705932E0,2.4948605E1,1.5228735E1,6.781543E0,2.0711741E0,3.9370075E1,1.0614792E1,2.0181766E0,2.4614475E0,2.5629284E0,2.2385677E1,6.2171035E0,9.011632E0,3.7240322E1,2.1297514E0,8.424963E0,2.189829E0,3.2791255E0,1.9106552E1,4.539795E0,4.471837E0,3.0448418E1,6.791906E0],"tree_param":{"num_deleted":"0","num_feature":"28","num_nodes":"31","size_leaf_vector":"1"}},{"base_weights":[-2.6320098E-3,-6.096279E-1,1.7838033E-1,-8.44579E-1,6.7097664E-2,7.084454E-1,-3.353543E-2,-1.0719893E0,1.1448066E-2,1.0794995E0,1.1350566E-3,-1.5839465E-1,7.556387E-1,-2.659023E-2,-1.1643876E0,9.499545E-3,9.8212615E-2,-3.177763E-1,5.4697588E-2,2.4931306E-1,-4.2177516E-1,-1.2212722E-2,8.6968735E-2,-1.0131131E-1,-3.43574E-2,-6.8969056E-2,1.6173718E-2,5.186309E-2,-6.999534E-2,-4.5413923E-2,7.427653E-2],"categories":[],"categories_nodes":[],"categories_segments":[],"categories_sizes":[],"default_left":[0,0,0,0,0,0,0,0,0,0,0,0,0,0,0,0,0,0,0,0,0,0,0,0,0,0,0,0,0,0,0],"id":11,"left_children":[1,3,5,7,-1,9,11,13,-1,15,17,19,21,-1,23,-1,-1,25,-1,27,29,-1,-1,-1,-1,-1,-1,-1,-1,-1,-1],"loss_changes":[1.1998714E1,9.611422E0,9.505859E0,5.3589516E0,0E0,6.2177677E0,6.140044E0,5.32959E-1,0E0,1.8842888E0,2.5154603E0,5.9844084E0,2.900465E0,0E0,1.9242096E-1,0E0,0E0,2.496859E0,0E0,1.0708113E1,7.3685117E0,0E0,0E0,0E0,0E0,0E0,0E0,0E0,0E0,0E0,0E0],"parents":[2147483647,0,0,1,1,2,2,3,3,5,5,6,6,7,7,9,9,10,10,11,11,12,12,14,14,17,17,19,19,20,20],"right_children":[2,4,6,8,-1,10,12,14,-1,16,18,20,22,-1,24,-1,-1,26,-1,28,30,-1,-1,-1,-1,-1,-1,-1,-1,-1,-1],"split_conditions":[-4.2005777E-1,1.4432653E0,-3.6943367E-1,3.3390555E-1,6.7097664E-2,7.6671106E-1,1.5987606E0,-1.3733658E0,1.1448066E-2,-9.152238E-1,-3.8295162E-1,2.2294283E-1,-3.5502625E-1,-2.659023E-2,3.991719E-1,9.499545E-3,9.8212615E-2,1.5287511E0,5.4697588E-2,-1.9213088E-1,1.6368647E0,-1.2212722E-2,8.6968735E-2,-1.0131131E-1,-3.43574E-2,-6.8969056E-2,1.6173718E-2,5.186309E-2,-6.999534E-2,-4.5413923E-2,7.427653E-2],"split_indices":[7,4,25,25,0,8,19,0,0,2,19,7,2,0,2,0,0,9,0,8,17,0,0,0,0,0,0,0,0,0,0],"split_type":[0,0,0,0,0,0,0,0,0,0,0,0,0,0,0,0,0,0,0,0,0,0,0,0,0,0,0,0,0,0,0],"sum_hessian":[1.05827484E2,2.362051E1,8.220697E1,2.0921043E1,2.6994658E0,2.260996E1,5.959701E1,1.6983784E1,3.9372597E0,1.4219661E1,8.390301E0,5.2600475E1,6.9965363E0,2.7721272E0,1.4211657E1,2.3510523E0,1.1868608E1,6.1650805E0,2.22522E0,2.0526423E1,3.207405E1,2.0063126E0,4.990224E0,1.1407518E1,2.8041384E0,2.6236138E0,3.5414667E0,1.5684351E1,4.8420725E0,2.9797691E1,2.2763598E0],"tree_param":{"num_deleted":"0","num_feature":"28","num_nodes":"31","size_leaf_vector":"1"}},{"base_weights":[4.703518E-2,-8.893006E-1,1.7113344E-1,-8.919369E-2,-0E0,3.3083138E-1,-2.4194235E-1,5.527967E-1,-3.5166532E-1,-5.407098E-1,7.043888E-2,2.0984231E-1,8.375213E-1,-6.2618715E-1,5.4274645E-2,2.9053139E-2,-7.2690445E-1,-3.0448934E-2,4.1521925E-2,7.576817E-2,-1.859893E-2,3.1608608E-2,-6.734596E-2,-7.097511E-2,1.5167868E-2],"categories":[],"categories_nodes":[],"categories_segments":[],"categories_sizes":[],"default_left":[0,0,0,0,0,0,0,0,0,0,0,0,0,0,0,0,0,0,0,0,0,0,0,0,0],"id":12,"left_children":[1,3,5,-1,-1,7,9,11,13,15,-1,17,19,21,-1,-1,23,-1,-1,-1,-1,-1,-1,-1,-1],"loss_changes":[1.2819025E1,2.5955381E0,6.565633E0,0E0,0E0,1.1094345E1,1.0035216E1,4.943968E0,5.799576E0,4.308551E0,0E0,5.209793E0,3.809595E0,3.9098592E0,0E0,0E0,3.2144604E0,0E0,0E0,0E0,0E0,0E0,0E0,0E0,0E0],"parents":[2147483647,0,0,1,1,2,2,5,5,6,6,7,7,8,8,9,9,11,11,12,12,13,13,16,16],"right_children":[2,4,6,-1,-1,8,10,12,14,16,-1,18,20,22,-1,-1,24,-1,-1,-1,-1,-1,-1,-1,-1],"split_conditions":[-1.1371967E0,-4.8209706E-1,5.734481E-1,-8.919369E-2,-0E0,1.8594094E-1,1.286539E0,5.3519502E-2,3.7465808E-1,-6.8208766E-1,7.043888E-2,-5.691911E-1,1.6870632E0,-1.2653539E0,5.4274645E-2,2.9053139E-2,1.3164783E0,-3.0448934E-2,4.1521925E-2,7.576817E-2,-1.859893E-2,3.1608608E-2,-6.734596E-2,-7.097511E-2,1.5167868E-2],"split_indices":[5,7,7,0,0,8,17,5,7,25,0,17,5,25,0,0,5,0,0,0,0,0,0,0,0],"split_type":[0,0,0,0,0,0,0,0,0,0,0,0,0,0,0,0,0,0,0,0,0,0,0,0,0],"sum_hessian":[1.0747432E2,1.1400589E1,9.607373E1,8.795687E0,2.604903E0,6.96769E1,2.6396828E1,5.2903053E1,1.6773848E1,2.1531958E1,4.8648715E0,2.5338825E1,2.7564228E1,1.3785299E1,2.9885483E0,3.3426158E0,1.818934E1,8.478051E0,1.6860775E1,2.5244646E1,2.3195822E0,2.10474E0,1.1680559E1,1.5615482E1,2.5738583E0],"tree_param":{"num_deleted":"0","num_feature":"28","num_nodes":"25","size_leaf_vector":"1"}},{"base_weights":[-3.454548E-2,-1.1817218E-1,9.186089E-2,-1.0869548E0,5.9201363E-3,-9.6175306E-2,-2.249343E-2,1.102579E-1,-8.7119234E-1,8.7060975E-3,9.1896945E-1,-3.5293996E-3,-9.701481E-2,1.2420565E-2,-2.8335566E-2,1.5736056E-2,8.6307876E-2],"categories":[],"categories_nodes":[],"categories_segments":[],"categories_sizes":[],"default_left":[0,0,0,0,0,0,0,0,0,0,0,0,0,0,0,0,0],"id":13,"left_children":[1,3,-1,5,7,-1,-1,9,11,13,15,-1,-1,-1,-1,-1,-1],"loss_changes":[1.0629041E1,1.2241932E1,0E0,4.1721344E-1,8.377661E0,0E0,0E0,6.6772594E0,2.539266E0,4.0509214E0,6.036601E-1,0E0,0E0,0E0,0E0,0E0,0E0],"parents":[2147483647,0,0,1,1,3,3,4,4,7,7,8,8,9,9,10,10],"right_children":[2,4,-1,6,8,-1,-1,10,12,14,16,-1,-1,-1,-1,-1,-1],"split_conditions":[1.7250592E0,-9.276969E-1,9.186089E-2,-5.7438123E-1,1.6463072E0,-9.6175306E-2,-2.249343E-2,1.630108E0,-2.3626162E-1,5.6064737E-1,-2.1817482E-1,-3.5293996E-3,-9.701481E-2,1.2420565E-2,-2.8335566E-2,1.5736056E-2,8.6307876E-2],"split_indices":[4,7,0,5,11,0,0,19,2,7,2,0,0,0,0,0,0],"split_type":[0,0,0,0,0,0,0,0,0,0,0,0,0,0,0,0,0],"sum_hessian":[1.0494082E2,9.935118E1,5.5896363E0,1.0050944E1,8.930024E1,8.039223E0,2.0117214E0,8.1080666E1,8.219577E0,7.349191E1,7.58875E0,2.9825757E0,5.237001E0,5.315859E1,2.0333324E1,2.0950587E0,5.493691E0],"tree_param":{"num_deleted":"0","num_feature":"28","num_nodes":"17","size_leaf_vector":"1"}},{"base_weights":[5.465783E-2,-8.5566556E-1,1.7556898E-1,-1.5456942E-2,-8.515439E-2,2.6124408E-2,7.603609E-1,7.045924E-1,-1.2463376E-1,-1.0230741E-2,8.860877E-1,-6.310168E-2,9.405173E-2,-2.223076E-1,7.017168E-2,9.018711E-2,2.8702032E-3,-5.5131256E-3,-5.2700367E-2],"categories":[],"categories_nodes":[],"categories_segments":[],"categories_sizes":[],"default_left":[0,0,0,0,0,0,0,0,0,0,0,0,0,0,0,0,0,0,0],"id":14,"left_children":[1,3,5,-1,-1,7,9,11,13,-1,15,-1,-1,17,-1,-1,-1,-1,-1],"loss_changes":[1.1622307E1,1.2766619E0,8.044635E0,0E0,0E0,7.962574E0,2.3451595E0,1.1391932E1,6.423753E0,0E0,3.2598066E0,0E0,0E0,3.8085406E0,0E0,0E0,0E0,0E0,0E0],"parents":[2147483647,0,0,1,1,2,2,5,5,6,6,7,7,8,8,10,10,13,13],"right_children":[2,4,6,-1,-1,8,10,12,14,-1,16,-1,-1,18,-1,-1,-1,-1,-1],"split_conditions":[-1.1371967E0,-8.471114E-1,7.851903E-1,-1.5456942E-2,-8.515439E-2,-7.7289236E-1,-5.6134117E-1,-1.0867074E0,1.7250592E0,-1.0230741E-2,6.163605E-1,-6.310168E-2,9.405173E-2,1.2823019E0,7.017168E-2,9.018711E-2,2.8702032E-3,-5.5131256E-3,-5.2700367E-2],"split_indices":[5,19,19,0,0,2,5,17,4,0,17,0,0,8,0,0,0,0,0],"split_type":[0,0,0,0,0,0,0,0,0,0,0,0,0,0,0,0,0,0,0],"sum_hessian":[1.0266242E2,1.0871339E1,9.1791084E1,3.4119039E0,7.459435E0,7.4492424E1,1.7298656E1,1.2661914E1,6.1830513E1,2.0431232E0,1.5255534E1,2.742733E0,9.919181E0,5.749198E1,4.3385324E0,1.1411048E1,3.8444862E0,4.3995358E1,1.3496623E1],"tree_param":{"num_deleted":"0","num_feature":"28","num_nodes":"19","size_leaf_vector":"1"}},{"base_weights":[1.8939061E-2,-4.8808724E-2,7.7821575E-2,-6.253177E-1,1.0760167E-1,-1.0516076E0,7.9299435E-2,7.5720537E-1,-0E0,-2.7273104E-2,-1.00482844E-1,5.5392593E-1,-6.3616954E-2,9.1733806E-2,-1.7868778E-2,-5.003658E-1,1.5909393E-1,-2.216437E-2,8.186614E-2,4.4650603E-2,-7.620876E-2,2.960771E-2,-2.3344466E-2],"categories":[],"categories_nodes":[],"categories_segments":[],"categories_sizes":[],"default_left":[0,0,0,0,0,0,0,0,0,0,0,0,0,0,0,0,0,0,0,0,0,0,0],"id":15,"left_children":[1,3,-1,5,7,9,11,13,15,-1,-1,17,-1,-1,-1,19,21,-1,-1,-1,-1,-1,-1],"loss_changes":[7.0616016E0,9.259926E0,0E0,6.803588E0,5.704773E0,1.2094898E0,4.606894E0,4.897773E0,5.764797E0,0E0,0E0,3.2921972E0,0E0,0E0,0E0,9.222027E0,5.3544855E0,0E0,0E0,0E0,0E0,0E0,0E0],"parents":[2147483647,0,0,1,1,3,3,4,4,5,5,6,6,7,7,8,8,11,11,15,15,16,16],"right_children":[2,4,-1,6,8,10,12,14,16,-1,-1,18,-1,-1,-1,20,22,-1,-1,-1,-1,-1,-1],"split_conditions":[1.7250592E0,-4.65102E-1,7.7821575E-2,-1.3618678E-1,-7.394021E-1,-1.5219627E-1,-1.9213088E-1,1.5676104E0,-7.5143313E-1,-2.7273104E-2,-1.00482844E-1,-1.2785178E0,-6.3616954E-2,9.1733806E-2,-1.7868778E-2,-5.514802E-1,2.320424E-1,-2.216437E-2,8.186614E-2,4.4650603E-2,-7.620876E-2,2.960771E-2,-2.3344466E-2],"split_indices":[4,7,0,25,25,26,8,8,17,0,0,4,0,0,0,19,8,0,0,0,0,0,0],"split_type":[0,0,0,0,0,0,0,0,0,0,0,0,0,0,0,0,0,0,0,0,0,0,0],"sum_hessian":[1.0524706E2,9.949838E1,5.748675E0,2.041046E1,7.908793E1,1.2345024E1,8.065436E0,1.0077073E1,6.901086E1,3.7609003E0,8.584124E0,5.658572E0,2.4068642E0,7.1035295E0,2.9735434E0,1.601633E1,5.2994522E1,2.1875563E0,3.4710157E0,4.6231937E0,1.1393138E1,3.643502E1,1.65595E1],"tree_param":{"num_deleted":"0","num_feature":"28","num_nodes":"23","size_leaf_vector":"1"}},{"base_weights":[-3.3405885E-2,-4.8297253E-1,1.6528238E-1,-7.5362647E-1,6.074218E-1,4.2619282E-1,-3.1844872E-1,5.0008968E-3,-8.717248E-1,6.725282E-2,1.4228967E-2,6.0490596E-1,-1.4245754E-1,-6.682733E-1,2.0450062E-1,-9.8674715E-2,-4.456319E-1,7.7507746E-1,1.0696202E-1,-7.530314E-2,3.4399924E-1,1.3137205E-2,-8.5475624E-1,-5.448039E-2,6.3925993E-1,2.5237918E-2,-7.880701E-2,-1.2959995E-3,6.8964936E-2,-2.2274004E-2,5.8662158E-2,6.0390405E-2,-4.210001E-2,-8.668389E-2,-1.561621E-2,7.131578E-2,-4.139172E-3],"categories":[],"categories_nodes":[],"categories_segments":[],"categories_sizes":[],"default_left":[0,0,0,0,0,0,0,0,0,0,0,0,0,0,0,0,0,0,0,0,0,0,0,0,0,0,0,0,0,0,0,0,0,0,0,0,0],"id":16,"left_children":[1,3,5,7,9,11,13,-1,15,-1,-1,17,19,21,23,-1,25,27,29,-1,31,-1,33,-1,35,-1,-1,-1,-1,-1,-1,-1,-1,-1,-1,-1,-1],"loss_changes":[8.926985E0,9.746128E0,8.934935E0,2.6008415E0,3.603344E-1,4.815851E0,4.812846E0,0E0,2.4454575E0,0E0,0E0,2.7669497E0,5.2082224E0,2.6713214E0,4.894437E0,0E0,5.754489E0,1.882451E0,2.9696171E0,0E0,3.6503444E0,0E0,1.5054798E0,0E0,1.5901163E0,0E0,0E0,0E0,0E0,0E0,0E0,0E0,0E0,0E0,0E0,0E0,0E0],"parents":[2147483647,0,0,1,1,2,2,3,3,4,4,5,5,6,6,8,8,11,11,12,12,13,13,14,14,16,16,17,17,18,18,20,20,22,22,24,24],"right_children":[2,4,6,8,10,12,14,-1,16,-1,-1,18,20,22,24,-1,26,28,30,-1,32,-1,34,-1,36,-1,-1,-1,-1,-1,-1,-1,-1,-1,-1,-1,-1],"split_conditions":[-2.672264E-1,1.2776208E-1,5.734481E-1,-1.3733658E0,-5.3187877E-1,3.6739774E-2,2.9789805E-1,5.0008968E-3,-4.606231E-1,6.725282E-2,1.4228967E-2,3.4857392E-1,-5.497786E-2,-7.592451E-1,-4.407137E-1,-9.8674715E-2,-1.9213088E-1,-1.0076007E0,4.6095997E-1,-7.530314E-2,4.1886806E-1,1.3137205E-2,1.0373038E0,-5.448039E-2,2.0652652E-1,2.5237918E-2,-7.880701E-2,-1.2959995E-3,6.8964936E-2,-2.2274004E-2,5.8662158E-2,6.0390405E-2,-4.210001E-2,-8.668389E-2,-1.561621E-2,7.131578E-2,-4.139172E-3],"split_indices":[7,5,7,0,7,8,4,0,2,0,0,7,4,2,2,0,8,4,7,0,0,0,7,0,26,0,0,0,0,0,0,0,0,0,0,0,0],"split_type":[0,0,0,0,0,0,0,0,0,0,0,0,0,0,0,0,0,0,0,0,0,0,0,0,0,0,0,0,0,0,0,0,0,0,0,0,0],"sum_hessian":[9.674362E1,2.9148098E1,6.759553E1,2.3796417E1,5.3516808E0,4.416134E1,2.343419E1,2.990355E0,2.0806063E1,2.3871758E0,2.964505E0,3.3662304E1,1.0499033E1,1.390613E1,9.52806E0,9.5890875E0,1.1216974E1,2.4316517E1,9.345788E0,3.5206707E0,6.978363E0,2.4796152E0,1.1426515E1,2.782051E0,6.7460093E0,4.8340917E0,6.3828826E0,2.4153748E0,2.1901142E1,6.2026577E0,3.1431298E0,4.953415E0,2.024948E0,7.6551323E0,3.7713823E0,4.729516E0,2.0164933E0],"tree_param":{"num_deleted":"0","num_feature":"28","num_nodes":"37","size_leaf_vector":"1"}},{"base_weights":[-1.31055955E-2,-8.1882164E-2,7.550232E-2,-6.513614E-1,6.0701977E-2,-8.782868E-2,1.6201446E-2,8.431607E-1,-4.473922E-2,-5.7914127E-2,5.5220026E-1,-6.6208057E-3,9.213638E-2,-6.247395E-1,8.374843E-2,5.6051005E-2,1.0062786E-2,1.0822377E-2,-8.030637E-2,8.2697764E-2,-6.206921E-3],"categories":[],"categories_nodes":[],"categories_segments":[],"categories_sizes":[],"default_left":[0,0,0,0,0,0,0,0,0,0,0,0,0,0,0,0,0,0,0,0,0],"id":17,"left_children":[1,3,-1,5,7,-1,9,11,13,-1,15,-1,-1,17,19,-1,-1,-1,-1,-1,-1],"loss_changes":[6.5673494E0,7.763677E0,0E0,5.834466E0,6.4506893E0,0E0,4.1735497E0,2.9001346E0,5.256519E0,0E0,1.7629516E-1,0E0,0E0,3.9749165E0,9.02381E0,0E0,0E0,0E0,0E0,0E0,0E0],"parents":[2147483647,0,0,1,1,3,3,4,4,6,6,7,7,8,8,10,10,13,13,14,14],"right_children":[2,4,-1,6,8,-1,10,12,14,-1,16,-1,-1,18,20,-1,-1,-1,-1,-1,-1],"split_conditions":[1.4432653E0,-4.65102E-1,7.550232E-2,-1.512556E-1,-8.02929E-1,-8.782868E-2,-1.3005077E0,-9.8302794E-1,-9.6275634E-1,-5.7914127E-2,-6.382023E-1,-6.6208057E-3,9.213638E-2,4.538361E-2,-7.3936486E-1,5.6051005E-2,1.0062786E-2,1.0822377E-2,-8.030637E-2,8.2697764E-2,-6.206921E-3],"split_indices":[4,7,0,25,25,0,4,19,17,0,4,0,0,7,0,0,0,0,0,0,0],"split_type":[0,0,0,0,0,0,0,0,0,0,0,0,0,0,0,0,0,0,0,0,0],"sum_hessian":[9.7838974E1,9.2655464E1,5.18351E0,1.7622074E1,7.503339E1,1.0069834E1,7.552241E0,7.7768126E0,6.725658E1,2.8728337E0,4.679407E0,2.1370926E0,5.63972E0,1.1287787E1,5.596879E1,2.5815966E0,2.0978105E0,3.9897883E0,7.2979994E0,7.037776E0,4.8931015E1],"tree_param":{"num_deleted":"0","num_feature":"28","num_nodes":"21","size_leaf_vector":"1"}},{"base_weights":[-1.6220529E-2,1.4898157E-1,-3.823267E-1,3.642807E-1,-2.8309834E-1,-9.8089117E-1,5.768029E-2,-6.46029E-2,6.514506E-1,-8.5470986E-1,-3.1373598E-2,-9.081577E-2,-8.363569E-3,-3.570224E-1,4.93835E-1,-2.5878018E-1,6.852938E-2,-3.1050723E-2,7.8931004E-1,-8.242539E-2,-1.7856063E-2,7.001139E-2,-2.4053359E-1,3.7788834E-2,-7.040419E-2,6.426063E-2,-2.7319193E-2,-3.5193052E-2,4.2705476E-2,2.4520801E-2,-2.7082045E-2,8.6513504E-2,3.4181036E-2,4.3350477E-2,-3.8195893E-2],"categories":[],"categories_nodes":[],"categories_segments":[],"categories_sizes":[],"default_left":[0,0,0,0,0,0,0,0,0,0,0,0,0,0,0,0,0,0,0,0,0,0,0,0,0,0,0,0,0,0,0,0,0,0,0],"id":18,"left_children":[1,3,5,7,9,11,13,15,17,19,21,-1,-1,23,25,27,-1,29,31,-1,-1,-1,33,-1,-1,-1,-1,-1,-1,-1,-1,-1,-1,-1,-1],"loss_changes":[6.338109E0,6.847871E0,8.772021E0,6.1288433E0,3.409213E0,1.5918922E0,3.9188538E0,3.9908023E0,2.8870869E0,3.43585E-1,3.8073556E0,0E0,0E0,5.4668283E0,3.1863837E0,2.9856849E0,0E0,8.103111E-1,1.7694445E0,0E0,0E0,0E0,3.4403274E0,0E0,0E0,0E0,0E0,0E0,0E0,0E0,0E0,0E0,0E0,0E0,0E0],"parents":[2147483647,0,0,1,1,2,2,3,3,4,4,5,5,6,6,7,7,8,8,9,9,10,10,13,13,14,14,15,15,17,17,18,18,22,22],"right_children":[2,4,6,8,10,12,14,16,18,20,22,-1,-1,24,26,28,-1,30,32,-1,-1,-1,34,-1,-1,-1,-1,-1,-1,-1,-1,-1,-1,-1,-1],"split_conditions":[-9.5103644E-2,3.959047E-1,4.429735E-3,-2.7324358E-1,-3.5376185E-1,6.415601E-1,3.4857392E-1,8.364934E-1,-8.3008474E-1,3.9845295E-2,-3.6943367E-1,-9.081577E-2,-8.363569E-3,-7.3168646E-3,1.2763059E0,8.119402E-1,6.852938E-2,-4.9506955E-2,-1.9552236E-2,-8.242539E-2,-1.7856063E-2,7.001139E-2,-8.3008474E-1,3.7788834E-2,-7.040419E-2,6.426063E-2,-2.7319193E-2,-3.5193052E-2,4.2705476E-2,2.4520801E-2,-2.7082045E-2,8.6513504E-2,3.4181036E-2,4.3350477E-2,-3.8195893E-2],"split_indices":[8,7,4,7,22,10,7,2,4,4,25,0,0,10,0,22,0,0,4,0,0,0,4,0,0,0,0,0,0,0,0,0,0,0,0],"split_type":[0,0,0,0,0,0,0,0,0,0,0,0,0,0,0,0,0,0,0,0,0,0,0,0,0,0,0,0,0,0,0,0,0,0,0],"sum_hessian":[1.01495705E2,7.036196E1,3.1133745E1,4.7273216E1,2.3088745E1,1.2505389E1,1.8628357E1,1.9285284E1,2.798793E1,5.839086E0,1.724966E1,1.01593685E1,2.3460207E0,9.570986E0,9.057371E0,1.6908459E1,2.3768241E0,4.776696E0,2.3211235E1,3.7035823E0,2.1355035E0,2.2488296E0,1.5000831E1,3.6837249E0,5.887261E0,6.738557E0,2.318814E0,1.4409155E1,2.4993045E0,2.1241634E0,2.6525326E0,1.1044006E1,1.2167229E1,2.9396517E0,1.2061179E1],"tree_param":{"num_deleted":"0","num_feature":"28","num_nodes":"35","size_leaf_vector":"1"}},{"base_weights":[2.930466E-2,-1.3126728E-1,5.535541E-1,-2.069887E-1,6.6607706E-2,8.298434E-1,-6.368293E-2,-2.8310764E-1,3.4433952E-1,-1.7357169E-2,9.7916275E-1,-5.275108E-1,-8.684364E-2,6.977105E-2,-2.1478903E-2,1.124331E0,1.651439E-2,-5.833035E-2,-6.8153846E-3,3.0470494E-2,-3.936838E-2,1.1897541E-2,9.995026E-2],"categories":[],"categories_nodes":[],"categories_segments":[],"categories_sizes":[],"default_left":[0,0,0,0,0,0,0,0,0,0,0,0,0,0,0,0,0,0,0,0,0,0,0],"id":19,"left_children":[1,3,5,7,-1,9,-1,11,13,-1,15,17,19,-1,-1,21,-1,-1,-1,-1,-1,-1,-1],"loss_changes":[8.567933E0,5.8601513E0,9.897564E0,3.2142527E0,0E0,3.6172943E0,0E0,3.0044465E0,3.4533339E0,0E0,1.5825787E0,2.3743472E0,7.545634E0,0E0,0E0,1.4165497E0,0E0,0E0,0E0,0E0,0E0,0E0,0E0],"parents":[2147483647,0,0,1,1,2,2,3,3,5,5,7,7,8,8,10,10,11,11,12,12,15,15],"right_children":[2,4,6,8,-1,10,-1,12,14,-1,16,18,20,-1,-1,22,-1,-1,-1,-1,-1,-1,-1],"split_conditions":[5.575367E-1,1.7250592E0,5.7502013E-1,1.0003467E0,6.6607706E-2,-1.3505945E0,-6.368293E-2,-2.2398606E-1,8.213785E-1,-1.7357169E-2,1.0209657E0,7.328448E-1,-1.7196989E-1,6.977105E-2,-2.1478903E-2,-7.2455394E-1,1.651439E-2,-5.833035E-2,-6.8153846E-3,3.0470494E-2,-3.936838E-2,1.1897541E-2,9.995026E-2],"split_indices":[19,4,9,2,0,4,0,25,27,0,0,4,0,0,0,17,0,0,0,0,0,0,0],"split_type":[0,0,0,0,0,0,0,0,0,0,0,0,0,0,0,0,0,0,0,0,0,0,0],"sum_hessian":[9.848495E1,7.610766E1,2.2377289E1,7.1752396E1,4.355265E0,1.911568E1,3.261609E0,6.3848328E1,7.904068E0,2.2178845E0,1.6897797E1,2.7082249E1,3.676608E1,3.9932938E0,3.9107745E0,1.3541856E1,3.3559403E0,1.7779322E1,9.302926E0,1.699504E1,1.9771038E1,2.0024576E0,1.1539398E1],"tree_param":{"num_deleted":"0","num_feature":"28","num_nodes":"23","size_leaf_vector":"1"}},{"base_weights":[-2.3806613E-2,-3.2029647E-1,1.5373872E-1,-6.4279085E-1,8.216033E-2,-2.626863E-2,7.46711E-1,-8.064212E-1,2.4050366E-2,6.7427054E-2,-3.25249E-1,3.393311E-1,-3.0110216E-1,8.541633E-2,-9.904088E-3,3.9733644E-3,-9.350982E-1,-9.264345E-2,5.235567E-2,6.355704E-1,-6.2108094E-1,-5.772967E-1,3.0123731E-1,-8.584157E-2,-1.51513815E-2,3.431658E-2,-4.821727E-2,8.7546155E-2,8.339154E-3,-6.509944E-2,-9.742318E-3,2.2782674E-2,-6.315951E-2,8.358322E-2,-1.9828387E-2],"categories":[],"categories_nodes":[],"categories_segments":[],"categories_sizes":[],"default_left":[0,0,0,0,0,0,0,0,0,0,0,0,0,0,0,0,0,0,0,0,0,0,0,0,0,0,0,0,0,0,0,0,0,0,0],"id":20,"left_children":[1,3,5,7,9,11,13,15,-1,-1,17,19,21,-1,-1,-1,23,-1,25,27,29,31,33,-1,-1,-1,-1,-1,-1,-1,-1,-1,-1,-1,-1],"loss_changes":[5.322045E0,5.056939E0,6.822014E0,3.7115154E0,6.060139E0,5.1351643E0,4.4401226E0,2.2181702E0,0E0,0E0,4.2135572E0,6.808058E0,5.159049E0,0E0,0E0,0E0,1.2591066E0,0E0,2.869658E0,3.9782166E0,3.1845498E-1,4.174567E0,4.581927E0,0E0,0E0,0E0,0E0,0E0,0E0,0E0,0E0,0E0,0E0,0E0,0E0],"parents":[2147483647,0,0,1,1,2,2,3,3,4,4,5,5,6,6,7,7,10,10,11,11,12,12,16,16,18,18,19,19,20,20,21,21,22,22],"right_children":[2,4,6,8,10,12,14,16,-1,-1,18,20,22,-1,-1,-1,24,-1,26,28,30,32,34,-1,-1,-1,-1,-1,-1,-1,-1,-1,-1,-1,-1],"split_conditions":[-1.8933436E-1,-2.547671E-1,6.900782E-1,8.119402E-1,-1.5915918E-1,2.2294283E-1,6.0196155E-1,-1.4768186E0,2.4050366E-2,6.7427054E-2,-8.4802544E-1,5.2334934E-1,6.0463256E-1,8.541633E-2,-9.904088E-3,3.9733644E-3,8.671989E-3,-9.264345E-2,-3.7437147E-1,-4.609067E-1,1.5726502E0,-5.543732E-1,3.2068044E-2,-8.584157E-2,-1.51513815E-2,3.431658E-2,-4.821727E-2,8.7546155E-2,8.339154E-3,-6.509944E-2,-9.742318E-3,2.2782674E-2,-6.315951E-2,8.358322E-2,-1.9828387E-2],"split_indices":[5,7,19,22,25,7,7,2,0,0,17,8,27,0,0,0,23,0,5,19,12,25,17,0,0,0,0,0,0,0,0,0,0,0,0],"split_type":[0,0,0,0,0,0,0,0,0,0,0,0,0,0,0,0,0,0,0,0,0,0,0,0,0,0,0,0,0,0,0,0,0,0,0],"sum_hessian":[9.7882355E1,3.6420143E1,6.1462215E1,1.9859314E1,1.6560827E1,4.8119568E1,1.3342648E1,1.7199917E1,2.659398E0,5.302594E0,1.1258233E1,2.0342674E1,2.7776896E1,9.5838E0,3.758847E0,2.266274E0,1.4933642E1,2.627649E0,8.630584E0,1.6014475E1,4.328199E0,1.9200947E1,8.575948E0,1.1933916E1,2.9997265E0,5.9057674E0,2.7248163E0,7.6402254E0,8.374249E0,2.2969642E0,2.0312345E0,3.59824E0,1.5602707E1,3.145054E0,5.430894E0],"tree_param":{"num_deleted":"0","num_feature":"28","num_nodes":"35","size_leaf_vector":"1"}},{"base_weights":[-1.3468891E-2,-7.613287E-2,7.252081E-2,-2.5292821E-3,7.189891E-2,-7.4217446E-2,7.005261E-2,1.1494791E-2,-7.0636146E-2,-1.3363821E-2,1.3787074E-2],"categories":[],"categories_nodes":[],"categories_segments":[],"categories_sizes":[],"default_left":[0,0,0,0,0,0,0,0,0,0,0],"id":21,"left_children":[1,-1,3,5,-1,7,-1,9,-1,-1,-1],"loss_changes":[8.217127E0,0E0,5.8241177E0,5.4387E0,0E0,5.7243004E0,0E0,2.1889052E0,0E0,0E0,0E0],"parents":[2147483647,0,0,2,2,3,3,5,5,7,7],"right_children":[2,-1,4,6,-1,8,-1,10,-1,-1,-1],"split_conditions":[-1.3569602E0,-7.613287E-2,1.630108E0,1.7250592E0,7.189891E-2,1.9815714E0,7.005261E-2,8.2314834E-2,-7.0636146E-2,-1.3363821E-2,1.3787074E-2],"split_indices":[5,0,19,4,0,27,0,5,0,0,0],"split_type":[0,0,0,0,0,0,0,0,0,0,0],"sum_hessian":[9.798193E1,7.0562963E0,9.092564E1,8.461401E1,6.3116217E0,7.960297E1,5.011048E0,7.320003E1,6.402941E0,3.436926E1,3.883077E1],"tree_param":{"num_deleted":"0","num_feature":"28","num_nodes":"11","size_leaf_vector":"1"}},{"base_weights":[4.4446796E-2,-2.7996771E-2,6.823492E-2,-4.9765378E-1,1.2636611E-1,6.5289676E-2,-9.2222494E-1,-2.8931612E-1,4.6087182E-1,-5.1644143E-2,4.81729E-1,-9.658378E-2,-8.500296E-3,3.2606652E-1,-6.691854E-1,-3.0226678E-1,6.201151E-1,-1.0823919E-2,6.497347E-2,-1.5258518E-2,7.052498E-2,-5.612759E-3,-9.118462E-2,-6.499272E-2,3.170061E-2,7.184096E-2,8.662124E-3],"categories":[],"categories_nodes":[],"categories_segments":[],"categories_sizes":[],"default_left":[0,0,0,0,0,0,0,0,0,0,0,0,0,0,0,0,0,0,0,0,0,0,0,0,0,0,0],"id":22,"left_children":[1,3,-1,5,7,9,11,13,15,-1,17,-1,-1,19,21,23,25,-1,-1,-1,-1,-1,-1,-1,-1,-1,-1],"loss_changes":[5.76875E0,6.6474533E0,0E0,5.6008534E0,9.7672E0,3.7234945E0,2.7325487E0,7.7048783E0,5.0242786E0,0E0,1.8474585E0,0E0,0E0,4.0240045E0,5.4016294E0,3.2303016E0,4.4012117E0,0E0,0E0,0E0,0E0,0E0,0E0,0E0,0E0,0E0,0E0],"parents":[2147483647,0,0,1,1,3,3,4,4,5,5,6,6,7,7,8,8,10,10,13,13,14,14,15,15,16,16],"right_children":[2,4,-1,6,8,10,12,14,16,-1,18,-1,-1,20,22,24,26,-1,-1,-1,-1,-1,-1,-1,-1,-1,-1],"split_conditions":[1.3911526E0,-7.418475E-1,6.823492E-2,-4.1932842E-1,-3.2959896E-1,-1.0184081E0,7.7364373E-1,1.2202834E-3,-4.408425E-1,-5.1644143E-2,-5.8265507E-2,-9.658378E-2,-8.500296E-3,1.2776208E-1,2.8407097E-1,-1.7132863E-1,3.7225842E-1,-1.0823919E-2,6.497347E-2,-1.5258518E-2,7.052498E-2,-5.612759E-3,-9.118462E-2,-6.499272E-2,3.170061E-2,7.184096E-2,8.662124E-3],"split_indices":[4,17,0,19,19,2,19,17,17,0,5,0,0,5,7,4,2,0,0,0,0,0,0,0,0,0,0],"split_type":[0,0,0,0,0,0,0,0,0,0,0,0,0,0,0,0,0,0,0,0,0,0,0,0,0,0,0],"sum_hessian":[9.497343E1,8.8378746E1,6.5946817E0,2.119718E1,6.7181564E1,9.557968E0,1.1639212E1,2.991304E1,3.7268528E1,3.1373239E0,6.4206443E0,8.001747E0,3.637465E0,1.1397867E1,1.8515173E1,6.0931683E0,3.117536E1,2.4426641E0,3.9779801E0,6.3216014E0,5.076266E0,8.998125E0,9.517048E0,3.4628239E0,2.6303442E0,1.9345074E1,1.1830285E1],"tree_param":{"num_deleted":"0","num_feature":"28","num_nodes":"27","size_leaf_vector":"1"}},{"base_weights":[-2.6230289E-2,-9.901412E-2,6.843378E-2,-5.353313E-1,4.3165043E-2,-6.994058E-1,2.6701376E-2,-9.977115E-2,4.1454563E-1,-8.276422E-1,3.234187E-3,5.67257E-2,-2.5222194E-1,-4.6666503E-1,7.4657893E-1,-3.0466097E-3,-7.502782E-2,-7.885713E-3,-6.40416E-2,-5.697169E-2,-0E0,7.882657E-2,6.443814E-3],"categories":[],"categories_nodes":[],"categories_segments":[],"categories_sizes":[],"default_left":[0,0,0,0,0,0,0,0,0,0,0,0,0,0,0,0,0,0,0,0,0,0,0],"id":23,"left_children":[1,3,-1,5,7,9,-1,11,13,15,-1,-1,17,19,21,-1,-1,-1,-1,-1,-1,-1,-1],"loss_changes":[6.228084E0,5.689613E0,0E0,3.5942698E0,3.7759318E0,1.9792309E0,0E0,6.5243435E0,6.3334684E0,1.3112745E0,0E0,0E0,3.5163624E0,6.804E-1,2.1619635E0,0E0,0E0,0E0,0E0,0E0,0E0,0E0,0E0],"parents":[2147483647,0,0,1,1,3,3,4,4,5,5,7,7,8,8,9,9,12,12,13,13,14,14],"right_children":[2,4,-1,6,8,10,-1,12,14,16,-1,-1,18,20,22,-1,-1,-1,-1,-1,-1,-1,-1],"split_conditions":[1.4432653E0,-3.407951E-1,6.843378E-2,9.146175E-2,5.575367E-1,8.119402E-1,2.6701376E-2,-4.5712668E-1,-2.0352922E-1,-6.510564E-1,3.234187E-3,5.67257E-2,3.749888E-2,2.4681304E-1,7.102849E-1,-3.0466097E-3,-7.502782E-2,-7.885713E-3,-6.40416E-2,-5.697169E-2,-0E0,7.882657E-2,6.443814E-3],"split_indices":[4,7,0,5,19,22,0,5,5,22,0,0,23,23,0,0,0,0,0,0,0,0,0],"split_type":[0,0,0,0,0,0,0,0,0,0,0,0,0,0,0,0,0,0,0,0,0,0,0],"sum_hessian":[9.475483E1,8.886375E1,5.8910813E0,2.0993814E1,6.7869934E1,1.8003017E1,2.9907966E0,4.9605595E1,1.826434E1,1.5306972E1,2.6960466E0,6.894339E0,4.2711254E1,4.749598E0,1.3514741E1,2.233191E0,1.307378E1,3.488689E1,7.824366E0,2.5252497E0,2.224348E0,9.308613E0,4.2061276E0],"tree_param":{"num_deleted":"0","num_feature":"28","num_nodes":"23","size_leaf_vector":"1"}},{"base_weights":[8.016544E-3,-6.664402E-2,6.7327544E-2,1.2377548E-1,-6.858682E-2,6.413939E-2,6.662513E-2,-3.2593326E-3,7.3500854E-1,-4.9234424E-2,6.4623896E-3,7.23155E-2,1.057294E-2],"categories":[],"categories_nodes":[],"categories_segments":[],"categories_sizes":[],"default_left":[0,0,0,0,0,0,0,0,0,0,0,0,0],"id":24,"left_children":[1,-1,3,5,-1,7,-1,9,11,-1,-1,-1,-1],"loss_changes":[4.773381E0,0E0,4.822161E0,3.5061445E0,0E0,3.781976E0,0E0,4.028804E0,4.9354076E-1,0E0,0E0,0E0,0E0],"parents":[2147483647,0,0,2,2,3,3,5,5,7,7,8,8],"right_children":[2,-1,4,6,-1,8,-1,10,12,-1,-1,-1,-1],"split_conditions":[-1.5434531E0,-6.664402E-2,1.6853505E0,1.4822785E0,-6.858682E-2,1.4198139E0,6.662513E-2,-1.0013573E0,1.2651812E0,-4.9234424E-2,6.4623896E-3,7.23155E-2,1.057294E-2],"split_indices":[5,0,0,17,0,4,0,19,8,0,0,0,0],"split_type":[0,0,0,0,0,0,0,0,0,0,0,0,0],"sum_hessian":[9.4037125E1,4.7944617E0,8.924266E1,8.5434494E1,3.8081675E0,8.0445114E1,4.9893827E0,7.432202E1,6.123093E0,7.9701176E0,6.6351906E1,4.068042E0,2.055051E0],"tree_param":{"num_deleted":"0","num_feature":"28","num_nodes":"13","size_leaf_vector":"1"}},{"base_weights":[2.9177357E-2,-7.1717635E-2,1.10094756E-1,1.1406812E-2,7.524247E-1,-5.6341726E-2,7.223985E-2,7.5667515E-2,-4.189739E-3,5.5502766E-1,-1.3941027E-1,-3.1277485E-2,7.4381635E-2,-3.161288E-3,-4.2823013E-2],"categories":[],"categories_nodes":[],"categories_segments":[],"categories_sizes":[],"default_left":[0,0,0,0,0,0,0,0,0,0,0,0,0,0,0],"id":25,"left_children":[1,-1,3,5,7,9,-1,-1,-1,11,13,-1,-1,-1,-1],"loss_changes":[7.1465635E0,0E0,5.509767E0,4.885852E0,1.9701462E0,3.8328803E0,0E0,0E0,0E0,3.7930877E0,2.5404024E0,0E0,0E0,0E0,0E0],"parents":[2147483647,0,0,2,2,3,3,4,4,5,5,9,9,10,10],"right_children":[2,-1,4,6,8,10,-1,-1,-1,12,14,-1,-1,-1,-1],"split_conditions":[-1.3569602E0,-7.1717635E-2,1.1963941E0,1.7250592E0,1.4891338E0,-9.2191315E-1,7.223985E-2,7.5667515E-2,-4.189739E-3,-8.064995E-1,1.2823019E0,-3.1277485E-2,7.4381635E-2,-3.161288E-3,-4.2823013E-2],"split_indices":[5,0,19,4,2,2,0,0,0,17,8,0,0,0,0],"split_type":[0,0,0,0,0,0,0,0,0,0,0,0,0,0,0],"sum_hessian":[9.298678E1,6.160474E0,8.682631E1,7.6721146E1,1.010516E1,7.250484E1,4.216306E0,8.035363E0,2.0697973E0,7.5095744E0,6.499527E1,2.0366025E0,5.472972E0,5.3418247E1,1.1577021E1],"tree_param":{"num_deleted":"0","num_feature":"28","num_nodes":"15","size_leaf_vector":"1"}},{"base_weights":[-1.417808E-2,-2.6583463E-1,1.5054865E-1,4.0020816E-2,-5.071164E-1,2.320199E-1,-6.296391E-2,-4.964935E-1,4.7969982E-1,-8.2765955E-1,1.0682761E-2,9.092379E-2,8.1402934E-1,9.105151E-3,-7.2136104E-2,6.677901E-2,-2.1941213E-2,-1.0230105E0,-1.08201215E-2,-4.1090593E-2,3.0844754E-1,2.4158944E-1,-5.1552045E-1,7.897664E-2,2.417077E-2,-3.2429177E-2,-9.504851E-2,-1.0810113E-2,4.581622E-2,-4.6600245E-2,2.704335E-2,6.3713994E-3,-5.7916105E-2],"categories":[],"categories_nodes":[],"categories_segments":[],"categories_sizes":[],"default_left":[0,0,0,0,0,0,0,0,0,0,0,0,0,0,0,0,0,0,0,0,0,0,0,0,0,0,0,0,0,0,0,0,0],"id":26,"left_children":[1,3,5,7,9,11,-1,13,15,17,19,21,23,-1,-1,-1,-1,25,-1,-1,27,29,31,-1,-1,-1,-1,-1,-1,-1,-1,-1,-1],"loss_changes":[3.8802311E0,2.8172314E0,4.5148916E0,4.5029106E0,3.5885158E0,4.1512914E0,0E0,2.34798E0,3.2176633E0,1.453826E0,1.6861672E0,4.2244925E0,3.1156206E-1,0E0,0E0,0E0,0E0,1.2840366E-1,0E0,0E0,9.874075E-1,3.1951933E0,1.2921958E0,0E0,0E0,0E0,0E0,0E0,0E0,0E0,0E0,0E0,0E0],"parents":[2147483647,0,0,1,1,2,2,3,3,4,4,5,5,7,7,8,8,9,9,10,10,11,11,12,12,17,17,20,20,21,21,22,22],"right_children":[2,4,6,8,10,12,-1,14,16,18,20,22,24,-1,-1,-1,-1,26,-1,-1,28,30,32,-1,-1,-1,-1,-1,-1,-1,-1,-1,-1],"split_conditions":[-3.5502625E-1,-8.190282E-1,1.6853505E0,-4.2005777E-1,6.513438E-1,8.944018E-1,-6.296391E-2,-1.3733658E0,6.1197835E-1,-3.7186605E-1,-5.8199275E-1,6.135836E-1,6.735478E-1,9.105151E-3,-7.2136104E-2,6.677901E-2,-2.1941213E-2,-6.383198E-2,-1.08201215E-2,-4.1090593E-2,-3.6554936E-2,-6.377926E-1,8.774823E-2,7.897664E-2,2.417077E-2,-3.2429177E-2,-9.504851E-2,-1.0810113E-2,4.581622E-2,-4.6600245E-2,2.704335E-2,6.3713994E-3,-5.7916105E-2],"split_indices":[2,0,0,7,25,19,0,0,7,0,5,25,25,0,0,0,0,7,0,0,19,7,7,0,0,0,0,0,0,0,0,0,0],"split_type":[0,0,0,0,0,0,0,0,0,0,0,0,0,0,0,0,0,0,0,0,0,0,0,0,0,0,0,0,0,0,0,0,0],"sum_hessian":[9.03758E1,3.5629787E1,5.474601E1,1.6081358E1,1.9548431E1,5.1505936E1,3.2400749E0,7.05333E0,9.028028E0,1.1638885E1,7.9095464E0,4.2990047E1,8.515889E0,3.1463368E0,3.9069932E0,6.1187024E0,2.9093256E0,8.406509E0,3.2323756E0,2.3493855E0,5.560161E0,3.528992E1,7.700125E0,5.1764803E0,3.3394094E0,2.9940553E0,5.412454E0,2.2081525E0,3.3520083E0,2.796955E0,3.2492966E1,2.1131654E0,5.58696E0],"tree_param":{"num_deleted":"0","num_feature":"28","num_nodes":"33","size_leaf_vector":"1"}},{"base_weights":[2.2703232E-2,-1.9837195E-1,2.3815304E-1,-3.850017E-1,1.6160747E-1,1.4684063E-1,7.044893E-2,3.1002438E-1,-6.5180296E-1,-5.7838738E-2,5.275825E-1,3.3524185E-1,-1.3808647E-1,-7.938079E-2,6.991209E-2,-9.21475E-2,-3.876375E-1,9.0960324E-1,-1.8139061E-1,7.771498E-1,-7.293783E-2,-6.858237E-1,4.2789662E-1,3.9804377E-2,-4.6656802E-2,-6.1328593E-3,-6.6369735E-2,8.783587E-2,2.6530769E-2,-4.463051E-2,1.8121025E-2,7.396667E-2,5.275027E-3,-4.3654855E-2,4.3861773E-2,-7.597161E-2,-0E0,7.6926105E-2,-1.7307045E-2],"categories":[],"categories_nodes":[],"categories_segments":[],"categories_sizes":[],"default_left":[0,0,0,0,0,0,0,0,0,0,0,0,0,0,0,0,0,0,0,0,0,0,0,0,0,0,0,0,0,0,0,0,0,0,0,0,0,0,0],"id":27,"left_children":[1,3,5,7,9,11,-1,13,15,-1,17,19,21,23,-1,-1,25,27,29,31,33,35,37,-1,-1,-1,-1,-1,-1,-1,-1,-1,-1,-1,-1,-1,-1,-1,-1],"loss_changes":[4.526809E0,3.2545407E0,2.533691E0,6.159099E0,5.9997435E0,2.4607496E0,0E0,2.2961342E0,2.250681E0,0E0,3.8003297E0,5.0695753E0,6.1813936E0,2.467334E0,0E0,0E0,2.235879E0,2.5692225E-1,1.0916108E0,1.2069902E0,4.97579E0,1.9066072E0,3.79067E0,0E0,0E0,0E0,0E0,0E0,0E0,0E0,0E0,0E0,0E0,0E0,0E0,0E0,0E0,0E0,0E0],"parents":[2147483647,0,0,1,1,2,2,3,3,4,4,5,5,7,7,8,8,10,10,11,11,12,12,13,13,16,16,17,17,18,18,19,19,20,20,21,21,22,22],"right_children":[2,4,6,8,10,12,-1,14,16,-1,18,20,22,24,-1,-1,26,28,30,32,34,36,38,-1,-1,-1,-1,-1,-1,-1,-1,-1,-1,-1,-1,-1,-1,-1,-1],"split_conditions":[8.2314834E-2,2.8274545E-1,1.408498E0,-8.4140855E-1,-9.4355303E-1,2.1564107E-1,7.044893E-2,-1.9385266E-1,-9.2150867E-1,-5.7838738E-2,9.526043E-1,-4.1932842E-1,-3.3663353E-1,-1.7529848E0,6.991209E-2,-9.21475E-2,1.5159448E-2,5.5649185E-1,-3.5176283E-1,7.712509E-1,-3.2434988E-1,5.590956E-1,1.7693734E-1,3.9804377E-2,-4.6656802E-2,-6.1328593E-3,-6.6369735E-2,8.783587E-2,2.6530769E-2,-4.463051E-2,1.8121025E-2,7.396667E-2,5.275027E-3,-4.3654855E-2,4.3861773E-2,-7.597161E-2,-0E0,7.6926105E-2,-1.7307045E-2],"split_indices":[5,17,19,19,19,17,0,0,4,0,17,19,19,0,0,0,4,17,7,8,17,2,19,0,0,0,0,0,0,0,0,0,0,0,0,0,0,0,0],"split_type":[0,0,0,0,0,0,0,0,0,0,0,0,0,0,0,0,0,0,0,0,0,0,0,0,0,0,0,0,0,0,0,0,0,0,0,0,0,0,0],"sum_hessian":[9.196862E1,4.5221325E1,4.6747295E1,2.9895607E1,1.5325718E1,4.2679733E1,4.067561E0,8.121366E0,2.177424E1,3.9768498E0,1.1348867E1,2.5743526E1,1.6936207E1,5.461336E0,2.6600294E0,5.653559E0,1.6120682E1,7.19078E0,4.1580873E0,1.182764E1,1.3915887E1,8.535218E0,8.400988E0,2.4621387E0,2.9991975E0,1.0628777E1,5.491905E0,4.2751102E0,2.9156704E0,2.0029867E0,2.1551006E0,9.307568E0,2.520072E0,8.09718E0,5.8187065E0,5.848107E0,2.6871114E0,4.2755194E0,4.1254687E0],"tree_param":{"num_deleted":"0","num_feature":"28","num_nodes":"39","size_leaf_vector":"1"}},{"base_weights":[-0E0,-3.831961E-1,1.4191641E-1,-5.7788044E-1,3.3354912E-2,4.5331198E-1,-6.774188E-2,5.789054E-3,-7.0453244E-1,6.7766917E-1,-3.0271E-1,-6.827247E-2,4.7175508E-2,-8.722759E-1,-1.537898E-1,8.192003E-1,-1.2568843E-2,-5.9401907E-2,1.6045395E-2,-1.1420682E-1,7.9584444E-1,-8.3724156E-2,-3.8267758E-3,3.159153E-2,-5.528318E-2,1.9351456E-2,8.01667E-2,8.348192E-3,-5.7694096E-2,1.1167659E-2,8.2675084E-2],"categories":[],"categories_nodes":[],"categories_segments":[],"categories_sizes":[],"default_left":[0,0,0,0,0,0,0,0,0,0,0,0,0,0,0,0,0,0,0,0,0,0,0,0,0,0,0,0,0,0,0],"id":28,"left_children":[1,3,5,7,-1,9,11,-1,13,15,17,-1,19,21,23,25,-1,-1,-1,27,29,-1,-1,-1,-1,-1,-1,-1,-1,-1,-1],"loss_changes":[4.884183E0,4.164008E0,4.346817E0,1.8098412E0,0E0,4.8665032E0,3.7640932E0,0E0,1.2890768E0,2.7546215E0,1.8347526E0,0E0,4.5925765E0,1.6483297E0,2.203436E0,1.4549685E0,0E0,0E0,0E0,4.297592E0,7.1699095E-1,0E0,0E0,0E0,0E0,0E0,0E0,0E0,0E0,0E0,0E0],"parents":[2147483647,0,0,1,1,2,2,3,3,5,5,6,6,8,8,9,9,10,10,12,12,13,13,14,14,15,15,19,19,20,20],"right_children":[2,4,6,8,-1,10,12,-1,14,16,18,-1,20,22,24,26,-1,-1,-1,28,30,-1,-1,-1,-1,-1,-1,-1,-1,-1,-1],"split_conditions":[-2.672264E-1,1.0572436E-1,2.8099108E-1,-1.3733658E0,3.3354912E-2,8.4769726E-2,-9.798582E-1,5.789054E-3,2.5688988E-1,5.7517314E-1,2.7653895E-2,-6.827247E-2,9.481052E-1,3.9987984E-1,-1.9213088E-1,-1.0577071E-1,-1.2568843E-2,-5.9401907E-2,1.6045395E-2,8.8802737E-1,-3.6554936E-2,-8.3724156E-2,-3.8267758E-3,3.159153E-2,-5.528318E-2,1.9351456E-2,8.01667E-2,8.348192E-3,-5.7694096E-2,1.1167659E-2,8.2675084E-2],"split_indices":[7,5,7,0,0,8,19,0,19,22,4,0,12,0,8,7,0,0,0,0,19,0,0,0,0,0,0,0,0,0,0],"split_type":[0,0,0,0,0,0,0,0,0,0,0,0,0,0,0,0,0,0,0,0,0,0,0,0,0,0,0,0,0,0,0],"sum_hessian":[8.659216E1,2.28078E1,6.378436E1,1.877998E1,4.02782E0,2.5155632E1,3.8628727E1,3.0376744E0,1.5742305E1,1.9620714E1,5.534918E0,3.8101828E0,3.4818546E1,1.1256528E1,4.4857774E0,1.6902756E1,2.717958E0,2.6791995E0,2.8557184E0,2.9579933E1,5.238611E0,8.858543E0,2.397985E0,2.3238223E0,2.161955E0,5.0361075E0,1.1866649E1,2.2540756E1,7.039177E0,2.1373425E0,3.101269E0],"tree_param":{"num_deleted":"0","num_feature":"28","num_nodes":"31","size_leaf_vector":"1"}},{"base_weights":[1.802065E-2,-6.653481E-2,7.1237385E-2,1.8585864E-2,6.883689E-2,-3.4807953E-1,1.3002735E-1,2.5619456E-1,-7.923994E-1,-1.2554853E-1,3.874406E-1,-4.4897135E-2,7.706118E-2,-9.017583E-2,5.2307993E-3,7.886972E-2,-2.668455E-2,-2.717773E-2,4.614841E-2],"categories":[],"categories_nodes":[],"categories_segments":[],"categories_sizes":[],"default_left":[0,0,0,0,0,0,0,0,0,0,0,0,0,0,0,0,0,0,0],"id":29,"left_children":[1,-1,3,5,-1,7,9,11,13,15,17,-1,-1,-1,-1,-1,-1,-1,-1],"loss_changes":[4.1238723E0,0E0,3.505327E0,3.4481022E0,0E0,5.621909E0,4.3853984E0,6.252407E0,3.5939312E0,8.202895E0,4.8658547E0,0E0,0E0,0E0,0E0,0E0,0E0,0E0,0E0],"parents":[2147483647,0,0,2,2,3,3,5,5,6,6,7,7,8,8,9,9,10,10],"right_children":[2,-1,4,6,-1,8,10,12,14,16,18,-1,-1,-1,-1,-1,-1,-1,-1],"split_conditions":[-1.6389666E0,-6.653481E-2,1.7250592E0,-7.840324E-1,6.883689E-2,-4.8849458E-1,-3.2959896E-1,-6.3175887E-1,7.7364373E-1,-4.3422297E-1,-4.408425E-1,-4.4897135E-2,7.706118E-2,-9.017583E-2,5.2307993E-3,7.886972E-2,-2.668455E-2,-2.717773E-2,4.614841E-2],"split_indices":[5,0,4,17,0,19,19,0,19,17,17,0,0,0,0,0,0,0,0],"split_type":[0,0,0,0,0,0,0,0,0,0,0,0,0,0,0,0,0,0,0],"sum_hessian":[8.941499E1,3.86597E0,8.554903E1,8.1756805E1,3.7922149E0,1.8105038E1,6.365177E1,7.8453784E0,1.025966E1,3.2130516E1,3.1521254E1,3.7166908E0,4.1286874E0,7.1244154E0,3.1352446E0,4.105279E0,2.8025238E1,6.15892E0,2.5362333E1],"tree_param":{"num_deleted":"0","num_feature":"28","num_nodes":"19","size_leaf_vector":"1"}},{"base_weights":[-1.1370268E-2,-2.999576E-1,1.0061408E-1,-2.9739875E-2,-6.881696E-2,6.590264E-1,1.9567043E-3,-5.661896E-1,2.8136668E-1,8.306607E-2,-2.5364734E-2,-8.918932E-2,6.4642483E-1,-6.649883E-2,-0E0,6.4985406E-1,-4.8224505E-2,4.425024E-1,-2.432847E-1,1.6193708E-2,6.884081E-2,6.287229E-2,1.5831942E-2,4.98431E-2,-1.53119E-2,-2.6906677E-2,2.8081829E-2],"categories":[],"categories_nodes":[],"categories_segments":[],"categories_sizes":[],"default_left":[0,0,0,0,0,0,0,0,0,0,0,0,0,0,0,0,0,0,0,0,0,0,0,0,0,0,0],"id":30,"left_children":[1,3,5,7,-1,9,11,13,15,-1,-1,17,19,-1,-1,21,-1,23,25,-1,-1,-1,-1,-1,-1,-1,-1],"loss_changes":[2.9696834E0,3.7711947E0,3.547194E0,3.4462152E0,0E0,4.155815E0,3.5154414E0,1.1437712E0,4.808069E0,0E0,0E0,4.360423E0,3.3898282E-1,0E0,0E0,2.7919817E-1,0E0,1.5903835E0,2.4449E0,0E0,0E0,0E0,0E0,0E0,0E0,0E0,0E0],"parents":[2147483647,0,0,1,1,2,2,3,3,5,5,6,6,7,7,8,8,11,11,12,12,15,15,17,17,18,18],"right_children":[2,4,6,8,-1,10,12,14,16,-1,-1,18,20,-1,-1,22,-1,24,26,-1,-1,-1,-1,-1,-1,-1,-1],"split_conditions":[-2.672264E-1,-1.9213088E-1,-8.02929E-1,-5.1961666E-1,-6.881696E-2,1.0579013E0,1.2759361E0,4.0978244E-1,5.328632E-1,8.306607E-2,-2.5364734E-2,-1.3377918E-3,1.6368647E0,-6.649883E-2,-0E0,2.727973E-1,-4.8224505E-2,3.4381273E-1,9.639769E-1,1.6193708E-2,6.884081E-2,6.287229E-2,1.5831942E-2,4.98431E-2,-1.53119E-2,-2.6906677E-2,2.8081829E-2],"split_indices":[7,8,25,17,0,10,17,25,17,0,0,7,17,0,0,4,0,4,11,0,0,0,0,0,0,0,0],"split_type":[0,0,0,0,0,0,0,0,0,0,0,0,0,0,0,0,0,0,0,0,0,0,0,0,0,0,0],"sum_hessian":[8.837392E1,2.4251678E1,6.412224E1,1.7546766E1,6.7049108E0,8.196358E0,5.592588E1,6.107311E0,1.1439456E1,5.9075356E0,2.2888224E0,4.9992737E1,5.933142E0,3.6848037E0,2.422507E0,8.434797E0,3.0046585E0,1.04566555E1,3.953608E1,3.0314434E0,2.9016988E0,5.4612246E0,2.973573E0,8.281519E0,2.1751368E0,3.489246E1,4.6436195E0],"tree_param":{"num_deleted":"0","num_feature":"28","num_nodes":"27","size_leaf_vector":"1"}},{"base_weights":[8.113665E-2,-6.21177E-2,1.2941667E-1,2.368223E-1,-2.1568455E-1,4.0486878E-1,-2.514266E-1,-7.743873E-1,1.4358267E-1,2.8872567E-1,7.04017E-2,-4.4875664E-1,1.5106583E-1,-1.1528179E-2,-7.517186E-2,-4.51575E-2,4.4511E-1,4.3302096E-2,-5.9621385E-3,1.8409403E-2,-5.7842657E-2,5.491697E-2,-3.3204198E-2,-4.2117895E-3,7.389659E-2],"categories":[],"categories_nodes":[],"categories_segments":[],"categories_sizes":[],"default_left":[0,0,0,0,0,0,0,0,0,0,0,0,0,0,0,0,0,0,0,0,0,0,0,0,0],"id":31,"left_children":[1,-1,3,5,7,9,11,13,15,17,-1,19,21,-1,-1,-1,23,-1,-1,-1,-1,-1,-1,-1,-1],"loss_changes":[3.742682E0,0E0,3.229437E0,5.5637817E0,4.392888E0,2.2420292E0,1.5302515E0,5.697894E-1,3.3068101E0,3.9877813E0,0E0,2.6007228E0,2.500258E0,0E0,0E0,0E0,2.6856494E0,0E0,0E0,0E0,0E0,0E0,0E0,0E0,0E0],"parents":[2147483647,0,0,2,2,3,3,4,4,5,5,6,6,7,7,8,8,9,9,11,11,12,12,16,16],"right_children":[2,-1,4,6,8,10,12,14,16,18,-1,20,22,-1,-1,-1,24,-1,-1,-1,-1,-1,-1,-1,-1],"split_conditions":[-1.6389666E0,-6.21177E-2,5.173009E-1,5.734481E-1,1.0288413E0,8.7188876E-1,7.4355006E-1,5.402802E-1,-2.672264E-1,-1.9552236E-2,7.04017E-2,-9.664766E-2,4.854377E-1,-1.1528179E-2,-7.517186E-2,-4.51575E-2,-3.8780186E-1,4.3302096E-2,-5.9621385E-3,1.8409403E-2,-5.7842657E-2,5.491697E-2,-3.3204198E-2,-4.2117895E-3,7.389659E-2],"split_indices":[5,0,8,7,12,2,5,12,7,4,0,5,25,0,0,0,19,0,0,0,0,0,0,0,0],"split_type":[0,0,0,0,0,0,0,0,0,0,0,0,0,0,0,0,0,0,0,0,0,0,0,0,0],"sum_hessian":[8.681362E1,3.3106492E0,8.3502975E1,6.4262886E1,1.9240088E1,4.8151115E1,1.6111773E1,6.9606338E0,1.2279453E1,4.0800133E1,7.350983E0,1.086233E1,5.2494416E0,2.1549554E0,4.8056784E0,3.1777396E0,9.101713E0,2.3796103E1,1.7004028E1,3.0903E0,7.772031E0,2.6248302E0,2.6246111E0,5.0135274E0,4.0881863E0],"tree_param":{"num_deleted":"0","num_feature":"28","num_nodes":"25","size_leaf_vector":"1"}},{"base_weights":[-4.359763E-2,-3.814475E-1,7.166139E-2,2.3393035E-1,-8.518058E-1,6.442482E-1,-1.4310702E-2,-5.1148128E-2,6.575579E-2,-8.752527E-2,-1.1858171E-2,3.1532543E-3,6.516453E-2,-1.886435E-1,4.5944366E-1,-7.867768E-2,-7.3860437E-1,6.6776633E-1,-1.7998911E-2,-1.4709477E-2,3.2464385E-2,-1.1261114E-2,-7.582902E-2,3.5568448E-3,7.368717E-2],"categories":[],"categories_nodes":[],"categories_segments":[],"categories_sizes":[],"default_left":[0,0,0,0,0,0,0,0,0,0,0,0,0,0,0,0,0,0,0,0,0,0,0,0,0],"id":32,"left_children":[1,3,5,7,9,11,13,-1,-1,-1,-1,-1,-1,15,17,19,21,23,-1,-1,-1,-1,-1,-1,-1],"loss_changes":[3.4593182E0,6.8979874E0,3.320979E0,6.3878493E0,1.8852282E0,7.7165365E-1,4.943986E0,0E0,0E0,0E0,0E0,0E0,0E0,2.496044E0,2.5580084E0,2.0545094E0,5.682745E-1,1.862225E0,0E0,0E0,0E0,0E0,0E0,0E0,0E0],"parents":[2147483647,0,0,1,1,2,2,3,3,4,4,5,5,6,6,13,13,14,14,15,15,16,16,17,17],"right_children":[2,4,6,8,10,12,14,-1,-1,-1,-1,-1,-1,16,18,20,22,24,-1,-1,-1,-1,-1,-1,-1],"split_conditions":[-7.5143313E-1,-4.1932842E-1,-9.2971146E-1,-8.494667E-1,7.7364373E-1,-1.2112238E0,4.444856E-1,-5.1148128E-2,6.575579E-2,-8.752527E-2,-1.1858171E-2,3.1532543E-3,6.516453E-2,5.806761E-1,1.0209657E0,1.0003467E0,-9.786693E-2,-7.154082E-1,-1.7998911E-2,-1.4709477E-2,3.2464385E-2,-1.1261114E-2,-7.582902E-2,3.5568448E-3,7.368717E-2],"split_indices":[17,19,2,0,19,7,19,0,0,0,0,0,0,23,0,2,4,4,0,0,0,0,0,0,0],"split_type":[0,0,0,0,0,0,0,0,0,0,0,0,0,0,0,0,0,0,0,0,0,0,0,0,0],"sum_hessian":[8.5488075E1,2.1085415E1,6.440266E1,9.369074E0,1.1716341E1,7.2877574E0,5.7114902E1,3.6489272E0,5.720147E0,7.9904075E0,3.7259338E0,2.1360672E0,5.15169E0,4.2565414E1,1.4549485E1,3.705301E1,5.5124054E0,1.1294393E1,3.2550921E0,3.137747E1,5.6755404E0,2.2036347E0,3.308771E0,3.8874016E0,7.4069915E0],"tree_param":{"num_deleted":"0","num_feature":"28","num_nodes":"25","size_leaf_vector":"1"}},{"base_weights":[-3.1864622E-3,-6.832369E-2,7.116462E-1,-5.2643603E-1,3.7604637E-2,7.3115155E-2,7.096253E-3,-7.2388E-1,1.7289428E-2,3.1624353E-1,-8.787643E-2,-7.310237E-2,2.3436076E-3,7.118791E-2,-9.071044E-2,-6.7953855E-2,2.709024E-2,-3.4263216E-2,3.7785962E-2,-1.1788083E-2,4.6034068E-2],"categories":[],"categories_nodes":[],"categories_segments":[],"categories_sizes":[],"default_left":[0,0,0,0,0,0,0,0,0,0,0,0,0,0,0,0,0,0,0,0,0],"id":33,"left_children":[1,3,5,7,9,-1,-1,11,-1,13,15,-1,-1,-1,17,-1,19,-1,-1,-1,-1],"loss_changes":[4.0562983E0,4.01742E0,6.9339514E-1,2.5609965E0,2.4122465E0,0E0,0E0,1.9467697E0,0E0,5.201808E0,4.2513275E0,0E0,0E0,0E0,2.9203346E0,0E0,4.2227316E0,0E0,0E0,0E0,0E0],"parents":[2147483647,0,0,1,1,2,2,3,3,4,4,7,7,9,9,10,10,14,14,16,16],"right_children":[2,4,6,8,10,-1,-1,12,-1,14,16,-1,-1,-1,18,-1,20,-1,-1,-1,-1],"split_conditions":[1.3911526E0,-4.65102E-1,-7.3168646E-3,-1.399934E-1,3.7611227E-2,7.3115155E-2,7.096253E-3,7.370627E-1,1.7289428E-2,-5.7016444E-1,-9.798582E-1,-7.310237E-2,2.3436076E-3,7.118791E-2,-1.0577071E-1,-6.7953855E-2,7.325248E-1,-3.4263216E-2,3.7785962E-2,-1.1788083E-2,4.6034068E-2],"split_indices":[4,7,10,5,7,0,0,19,0,19,19,0,0,0,7,0,17,0,0,0,0],"split_type":[0,0,0,0,0,0,0,0,0,0,0,0,0,0,0,0,0,0,0,0,0],"sum_hessian":[8.543094E1,7.966793E1,5.7630053E0,1.4020849E1,6.564708E1,3.7001882E0,2.0628173E0,1.121199E1,2.8088596E0,1.9923101E1,4.5723984E1,8.804906E0,2.4070835E0,7.631809E0,1.2291291E1,4.854517E0,4.0869465E1,8.019571E0,4.27172E0,3.1699492E1,9.169973E0],"tree_param":{"num_deleted":"0","num_feature":"28","num_nodes":"21","size_leaf_vector":"1"}},{"base_weights":[-2.5602961E-2,-3.7859842E-1,8.234292E-2,2.3481487E-1,-8.309942E-1,1.615811E-1,-3.4016937E-1,-3.7001652E-1,6.971189E-2,-8.150683E-2,-0E0,-4.3641463E-2,2.156508E-1,1.6962527E-1,-7.240188E-1,6.0525434E-3,-5.4157093E-2,6.5852165E-2,1.2236093E-1,-0E0,2.1488743E-2,-7.681932E-2,-1.0918289E-2,-3.3066433E-2,1.7864468E-2],"categories":[],"categories_nodes":[],"categories_segments":[],"categories_sizes":[],"default_left":[0,0,0,0,0,0,0,0,0,0,0,0,0,0,0,0,0,0,0,0,0,0,0,0,0],"id":34,"left_children":[1,3,5,7,9,11,13,15,-1,-1,-1,-1,17,19,21,-1,-1,-1,23,-1,-1,-1,-1,-1,-1],"loss_changes":[3.2521956E0,5.903283E0,2.2354343E0,4.2170434E0,1.7985439E0,2.2775455E0,2.2989993E0,9.410319E-1,0E0,0E0,0E0,0E0,2.7614381E0,9.9483594E-2,5.820217E-1,0E0,0E0,0E0,2.7096906E0,0E0,0E0,0E0,0E0,0E0,0E0],"parents":[2147483647,0,0,1,1,2,2,3,3,4,4,5,5,6,6,7,7,12,12,13,13,14,14,18,18],"right_children":[2,4,6,8,10,12,14,16,-1,-1,-1,-1,18,20,22,-1,-1,-1,24,-1,-1,-1,-1,-1,-1],"split_conditions":[-7.5143313E-1,-4.8849458E-1,6.176942E-1,-4.6661544E-1,1.180839E0,-1.1943558E0,-9.502114E-2,-2.6765934E-1,6.971189E-2,-8.150683E-2,-0E0,-4.3641463E-2,-8.476395E-1,-4.821516E-1,1.3269974E0,6.0525434E-3,-5.4157093E-2,6.5852165E-2,-4.7193116E-1,-0E0,2.1488743E-2,-7.681932E-2,-1.0918289E-2,-3.3066433E-2,1.7864468E-2],"split_indices":[17,19,23,2,19,5,7,4,0,0,0,0,2,19,23,0,0,0,2,0,0,0,0,0,0],"split_type":[0,0,0,0,0,0,0,0,0,0,0,0,0,0,0,0,0,0,0,0,0,0,0,0,0],"sum_hessian":[8.1844894E1,1.8503094E1,6.3341805E1,8.066259E0,1.0436834E1,5.431801E1,9.023793E0,4.377827E0,3.6884325E0,8.173693E0,2.2631419E0,2.7586317E0,5.155938E1,4.1236935E0,4.9000998E0,2.113545E0,2.2642822E0,5.1587043E0,4.6400673E1,2.0022218E0,2.121472E0,2.6948936E0,2.205206E0,6.4641848E0,3.993649E1],"tree_param":{"num_deleted":"0","num_feature":"28","num_nodes":"25","size_leaf_vector":"1"}},{"base_weights":[-3.9516017E-2,-9.307015E-2,5.818935E-1,-2.1602961E-1,2.5035205E-1,7.009599E-2,-2.3058993E-3,-6.3993365E-1,-1.1977286E-1,-5.7736397E-2,6.421463E-2,-7.0563264E-2,2.8358935E-3,4.8323536E-1,-2.6875412E-1,-4.669846E-1,3.6422724E-1,-1.3663415E-2,5.6741755E-2,-2.685824E-2,3.483602E-2,-6.435805E-2,2.2016264E-2,5.6295633E-2,-9.123721E-3],"categories":[],"categories_nodes":[],"categories_segments":[],"categories_sizes":[],"default_left":[0,0,0,0,0,0,0,0,0,0,0,0,0,0,0,0,0,0,0,0,0,0,0,0,0],"id":35,"left_children":[1,3,5,7,9,-1,-1,11,13,15,-1,-1,-1,17,19,21,23,-1,-1,-1,-1,-1,-1,-1,-1],"loss_changes":[2.9187174E0,3.5104043E0,1.3700626E0,2.2931523E0,3.8728108E0,0E0,0E0,1.8857765E0,4.81353E0,2.916088E0,0E0,0E0,0E0,1.8079228E0,2.2144666E0,2.5315878E0,1.5236402E0,0E0,0E0,0E0,0E0,0E0,0E0,0E0,0E0],"parents":[2147483647,0,0,1,1,2,2,3,3,4,4,7,7,8,8,9,9,13,13,14,14,15,15,16,16],"right_children":[2,4,6,8,10,-1,-1,12,14,16,-1,-1,-1,18,20,22,24,-1,-1,-1,-1,-1,-1,-1,-1],"split_conditions":[1.4198139E0,4.6029449E-1,-7.3168646E-3,-5.727865E-1,-2.2670437E-1,7.009599E-2,-2.3058993E-3,-2.357585E-1,-4.5712668E-1,2.1026205E-2,6.421463E-2,-7.0563264E-2,2.8358935E-3,-6.9962144E-1,1.2255172E0,9.146175E-2,5.6064737E-1,-1.3663415E-2,5.6741755E-2,-2.685824E-2,3.483602E-2,-6.435805E-2,2.2016264E-2,5.6295633E-2,-9.123721E-3],"split_indices":[4,19,10,7,4,0,0,25,5,17,0,0,0,17,17,5,7,0,0,0,0,0,0,0,0],"split_type":[0,0,0,0,0,0,0,0,0,0,0,0,0,0,0,0,0,0,0,0,0,0,0,0,0],"sum_hessian":[8.523217E1,7.979184E1,5.440332E0,5.937922E1,2.0412622E1,3.3416588E0,2.0986729E0,9.228177E0,5.0151043E1,1.3849542E1,6.563081E0,6.564173E0,2.664004E0,9.136011E0,4.101503E1,7.069764E0,6.779778E0,2.327032E0,6.808979E0,3.829942E1,2.7156134E0,4.865948E0,2.2038157E0,3.6740897E0,3.105688E0],"tree_param":{"num_deleted":"0","num_feature":"28","num_nodes":"25","size_leaf_vector":"1"}},{"base_weights":[-4.596228E-3,3.88054E-2,-6.00382E-2,-1.3038634E-1,2.2862156E-1,5.5269927E-2,-5.5088687E-1,-4.9049277E-2,3.4588593E-1,-3.9719117E-1,3.3004647E-1,-7.007752E-1,3.505786E-4,-3.0583256E-1,4.553459E-1,1.9367153E-2,-6.449764E-2,-1.866701E-2,3.5063557E-2,-7.162966E-2,-1.2755328E-2,2.464572E-2,-6.445988E-2,5.1670928E-2,-0E0],"categories":[],"categories_nodes":[],"categories_segments":[],"categories_sizes":[],"default_left":[0,0,0,0,0,0,0,0,0,0,0,0,0,0,0,0,0,0,0,0,0,0,0,0,0],"id":36,"left_children":[1,3,-1,5,7,9,11,-1,13,15,17,19,-1,21,23,-1,-1,-1,-1,-1,-1,-1,-1,-1,-1],"loss_changes":[2.825772E0,2.637775E0,0E0,3.4682074E0,4.1143546E0,4.06521E0,1.2007284E0,0E0,2.7247996E0,3.5708153E0,1.4149435E0,8.190131E-1,0E0,2.2044182E0,2.6960359E0,0E0,0E0,0E0,0E0,0E0,0E0,0E0,0E0,0E0,0E0],"parents":[2147483647,0,0,1,1,3,3,4,4,5,5,6,6,8,8,9,9,10,10,11,11,13,13,14,14],"right_children":[2,4,-1,6,8,10,12,-1,14,16,18,20,-1,22,24,-1,-1,-1,-1,-1,-1,-1,-1,-1,-1],"split_conditions":[1.6853505E0,1.2776208E-1,-6.00382E-2,-1.3367647E-1,-1.1199943E0,-5.691911E-1,3.7465808E-1,-4.9049277E-2,-9.798582E-1,-6.4742285E-1,-1.0818667E0,2.1043506E-1,3.505786E-4,4.0817204E-1,6.135836E-1,1.9367153E-2,-6.449764E-2,-1.866701E-2,3.5063557E-2,-7.162966E-2,-1.2755328E-2,2.464572E-2,-6.445988E-2,5.1670928E-2,-0E0],"split_indices":[0,5,0,8,23,17,7,0,19,19,19,17,0,7,25,0,0,0,0,0,0,0,0,0,0],"split_type":[0,0,0,0,0,0,0,0,0,0,0,0,0,0,0,0,0,0,0,0,0,0,0,0,0],"sum_hessian":[8.224157E1,7.893629E1,3.3052835E0,4.1705288E1,3.7231E1,2.9670443E1,1.2034843E1,3.6726644E0,3.3558334E1,1.0820562E1,1.8849882E1,9.30901E0,2.7258344E0,4.3074465E0,2.9250889E1,4.3654428E0,6.455119E0,2.6098025E0,1.6240078E1,5.9900107E0,3.3189986E0,2.101891E0,2.2055554E0,2.0246368E1,9.004519E0],"tree_param":{"num_deleted":"0","num_feature":"28","num_nodes":"25","size_leaf_vector":"1"}},{"base_weights":[7.4768206E-3,-8.875952E-2,3.6180228E-1,-1.5922707E-1,4.3834752E-1,-5.0130848E-2,5.7517403E-1,-6.1597097E-1,-4.239258E-2,5.8698516E-2,-8.6364085E-3,7.526763E-1,-1.51371285E-2,-0E0,-7.887762E-1,1.09691866E-1,-5.475401E-1,7.4111536E-2,-8.467865E-4,-6.9809044E-3,-8.814776E-2,-2.1368448E-2,2.3265358E-2,-3.0636792E-3,-7.901706E-2],"categories":[],"categories_nodes":[],"categories_segments":[],"categories_sizes":[],"default_left":[0,0,0,0,0,0,0,0,0,0,0,0,0,0,0,0,0,0,0,0,0,0,0,0,0],"id":37,"left_children":[1,3,5,7,9,-1,11,13,15,-1,-1,17,-1,-1,19,21,23,-1,-1,-1,-1,-1,-1,-1,-1],"loss_changes":[2.870683E0,2.5077455E0,4.3373194E0,3.0432796E0,1.4642813E0,0E0,2.398961E0,1.2447367E0,3.8802443E0,0E0,0E0,1.8487668E0,0E0,0E0,1.7475929E0,2.7517505E0,2.4603167E0,0E0,0E0,0E0,0E0,0E0,0E0,0E0,0E0],"parents":[2147483647,0,0,1,1,2,2,3,3,4,4,6,6,7,7,8,8,11,11,14,14,15,15,16,16],"right_children":[2,4,6,8,10,-1,12,14,16,-1,-1,18,-1,-1,20,22,24,-1,-1,-1,-1,-1,-1,-1,-1],"split_conditions":[6.56495E-1,1.0003467E0,-8.355977E-1,-3.5376185E-1,1.3862422E0,-5.0130848E-2,8.514534E-1,-7.851811E-1,4.1886806E-1,5.8698516E-2,-8.6364085E-3,-2.5758227E-2,-1.51371285E-2,-0E0,-5.674514E-1,-2.547671E-1,-1.6077891E-1,7.4111536E-2,-8.467865E-4,-6.9809044E-3,-8.814776E-2,-2.1368448E-2,2.3265358E-2,-3.0636792E-3,-7.901706E-2],"split_indices":[19,2,2,22,0,0,7,2,0,0,0,12,0,0,25,7,19,0,0,0,0,0,0,0,0],"split_type":[0,0,0,0,0,0,0,0,0,0,0,0,0,0,0,0,0,0,0,0,0,0,0,0,0],"sum_hessian":[8.0473366E1,6.3947083E1,1.6526285E1,5.749705E1,6.4500303E0,2.3351007E0,1.4191185E1,1.023214E1,4.726491E1,3.9712234E0,2.4788067E0,1.1641632E1,2.5495536E0,2.576819E0,7.65532E0,3.7078136E1,1.0186776E1,9.328816E0,2.3128152E0,3.0526311E0,4.6026893E0,1.1626722E1,2.5451414E1,5.584108E0,4.602668E0],"tree_param":{"num_deleted":"0","num_feature":"28","num_nodes":"25","size_leaf_vector":"1"}},{"base_weights":[3.1164637E-2,7.290548E-2,-6.074621E-2,-4.6688735E-2,1.22249804E-1,-3.3543065E-1,2.0384571E-1,8.890996E-2,-7.097237E-2,3.3875668E-1,-1.6860421E-1,-2.6088519E-2,4.7812957E-2,-4.7990293E-3,3.6768593E-2,-4.07596E-2,2.2935435E-2],"categories":[],"categories_nodes":[],"categories_segments":[],"categories_sizes":[],"default_left":[0,0,0,0,0,0,0,0,0,0,0,0,0,0,0,0,0],"id":38,"left_children":[1,3,-1,-1,5,7,9,11,-1,13,15,-1,-1,-1,-1,-1,-1],"loss_changes":[2.6812127E0,2.5960708E0,0E0,0E0,2.8592381E0,2.9148107E0,3.3218122E0,1.9706274E0,0E0,2.3811378E0,3.0102453E0,0E0,0E0,0E0,0E0,0E0,0E0],"parents":[2147483647,0,0,1,1,4,4,5,5,6,6,7,7,9,9,10,10],"right_children":[2,4,-1,-1,6,8,10,12,-1,14,16,-1,-1,-1,-1,-1,-1],"split_conditions":[2.2377474E0,-1.3505945E0,-6.074621E-2,-4.6688735E-2,-1.0013573E0,1.6606508E-1,6.4973736E-1,-2.0255466E-1,-7.097237E-2,-2.547671E-1,1.3220856E-1,-2.6088519E-2,4.7812957E-2,-4.7990293E-3,3.6768593E-2,-4.07596E-2,2.2935435E-2],"split_indices":[11,4,0,0,19,7,0,2,0,7,4,0,0,0,0,0,0],"split_type":[0,0,0,0,0,0,0,0,0,0,0,0,0,0,0,0,0],"sum_hessian":[7.932287E1,7.6757935E1,2.5649338E0,4.0888777E0,7.266905E1,1.0103808E1,6.2565247E1,6.3200064E0,3.7838018E0,4.6225403E1,1.6339846E1,3.6689758E0,2.6510303E0,1.0734639E1,3.549076E1,9.367372E0,6.9724736E0],"tree_param":{"num_deleted":"0","num_feature":"28","num_nodes":"17","size_leaf_vector":"1"}},{"base_weights":[-1.8466966E-2,1.0338783E-1,-3.022125E-1,3.3059376E-1,-2.5555527E-1,-6.4614743E-1,1.4543356E-1,-5.1858306E-2,4.3339577E-1,3.5528846E-2,-4.3746272E-1,-7.886512E-2,-2.2257954E-1,4.1805774E-1,-3.19191E-2,5.361813E-1,-3.7971698E-2,-6.308033E-1,2.687808E-2,4.4789005E-2,-4.965481E-2,5.3690813E-2,-2.2405512E-3,-1.1747245E-2,4.9490813E-2,-6.717551E-2,1.711871E-2],"categories":[],"categories_nodes":[],"categories_segments":[],"categories_sizes":[],"default_left":[0,0,0,0,0,0,0,0,0,0,0,0,0,0,0,0,0,0,0,0,0,0,0,0,0,0,0],"id":39,"left_children":[1,3,5,7,9,11,13,-1,15,-1,17,-1,19,21,-1,23,-1,25,-1,-1,-1,-1,-1,-1,-1,-1,-1],"loss_changes":[2.7785091E0,4.6798854E0,3.915584E0,3.917485E0,3.126538E0,1.5760942E0,1.9751595E0,0E0,3.4330068E0,0E0,3.1216567E0,0E0,3.1238396E0,1.0622643E0,0E0,1.8792715E0,0E0,3.0615125E0,0E0,0E0,0E0,0E0,0E0,0E0,0E0,0E0,0E0],"parents":[2147483647,0,0,1,1,2,2,3,3,4,4,5,5,6,6,8,8,10,10,12,12,13,13,15,15,17,17],"right_children":[2,4,6,8,10,12,14,-1,16,-1,18,-1,20,22,-1,24,-1,26,-1,-1,-1,-1,-1,-1,-1,-1,-1],"split_conditions":[-9.5103644E-2,3.4857392E-1,3.7465808E-1,-1.4339283E0,-3.6943367E-1,4.429735E-3,1.5236023E-1,-5.1858306E-2,7.370381E-1,3.5528846E-2,1.0304513E0,-7.886512E-2,-7.3168646E-3,1.9815714E0,-3.19191E-2,-1.3736761E0,-3.7971698E-2,9.1464484E-1,2.687808E-2,4.4789005E-2,-4.965481E-2,5.3690813E-2,-2.2405512E-3,-1.1747245E-2,4.9490813E-2,-6.717551E-2,1.711871E-2],"split_indices":[8,7,7,4,25,4,25,0,17,0,17,0,10,27,0,7,0,5,0,0,0,0,0,0,0,0,0],"split_type":[0,0,0,0,0,0,0,0,0,0,0,0,0,0,0,0,0,0,0,0,0,0,0,0,0,0,0],"sum_hessian":[7.69295E1,5.4237965E1,2.2691528E1,3.3457134E1,2.078083E1,1.258244E1,1.0109088E1,2.3310492E0,3.1126085E1,3.7284284E0,1.70524E1,5.7467914E0,6.835649E0,7.0903673E0,3.0187206E0,2.8611792E1,2.5142946E0,1.3966932E1,3.085469E0,2.0148911E0,4.820758E0,4.183923E0,2.9064448E0,2.8251383E0,2.5786652E1,1.1300158E1,2.6667745E0],"tree_param":{"num_deleted":"0","num_feature":"28","num_nodes":"27","size_leaf_vector":"1"}},{"base_weights":[-4.1385863E-2,-9.66326E-2,5.3079355E-1,-2.6931775E-1,7.0291266E-2,5.791452E-2,2.4206927E-3,-5.1399106E-1,1.0429168E-1,-5.3100415E-2,1.7333531E-1,-6.5559435E-1,4.3019433E-2,3.447682E-1,-5.819452E-2,2.6273805E-1,-3.5785094E-2,-5.9522394E-2,4.1074967E-5,3.398498E-2,-2.543411E-2,4.7594238E-2,-4.3595705E-2,3.2836497E-2,-7.524401E-4],"categories":[],"categories_nodes":[],"categories_segments":[],"categories_sizes":[],"default_left":[0,0,0,0,0,0,0,0,0,0,0,0,0,0,0,0,0,0,0,0,0,0,0,0,0],"id":40,"left_children":[1,3,5,7,9,-1,-1,11,13,-1,15,17,19,21,-1,23,-1,-1,-1,-1,-1,-1,-1,-1,-1],"loss_changes":[2.5253599E0,2.161635E0,5.69656E-1,3.4707909E0,3.011033E0,0E0,0E0,1.8826275E0,3.4551015E0,0E0,2.0879335E0,1.1320682E0,1.017562E0,3.4293635E0,0E0,1.3118267E0,0E0,0E0,0E0,0E0,0E0,0E0,0E0,0E0,0E0],"parents":[2147483647,0,0,1,1,2,2,3,3,4,4,7,7,8,8,10,10,11,11,12,12,13,13,15,15],"right_children":[2,4,6,8,10,-1,-1,12,14,-1,16,18,20,22,-1,24,-1,-1,-1,-1,-1,-1,-1,-1,-1],"split_conditions":[1.3911526E0,8.2314834E-2,1.1868616E0,5.7985216E-2,-1.1199943E0,5.791452E-2,2.4206927E-3,2.2648482E-1,6.8842626E-1,-5.3100415E-2,6.176942E-1,-2.7181737E-2,1.4437704E-1,3.7905657E-1,-5.819452E-2,6.27455E-1,-3.5785094E-2,-5.9522394E-2,4.1074967E-5,3.398498E-2,-2.543411E-2,4.7594238E-2,-4.3595705E-2,3.2836497E-2,-7.524401E-4],"split_indices":[4,5,27,17,23,0,0,26,9,0,23,5,25,4,0,0,0,0,0,0,0,0,0,0,0],"split_type":[0,0,0,0,0,0,0,0,0,0,0,0,0,0,0,0,0,0,0,0,0,0,0,0,0],"sum_hessian":[7.732809E1,7.18154E1,5.512688E0,3.5140743E1,3.6674652E1,3.350567E0,2.1621208E0,2.1055641E1,1.4085102E1,3.3903599E0,3.3284294E1,1.6719307E1,4.336334E0,1.1700562E1,2.3845408E0,2.999039E1,3.2939017E0,1.4690593E1,2.028714E0,2.1129668E0,2.2233677E0,9.608375E0,2.092187E0,1.9183037E1,1.0807355E1],"tree_param":{"num_deleted":"0","num_feature":"28","num_nodes":"25","size_leaf_vector":"1"}},{"base_weights":[-6.491465E-2,-1.11377284E-1,5.170399E-2,-2.2332639E-1,2.6978907E-1,1.2225879E-2,-4.413998E-1,-4.3269604E-2,5.519633E-1,3.5355583E-1,-6.4480186E-1,-7.0012206E-1,1.739598E-1,8.281501E-1,-5.3440803E-3,-4.400155E-2,4.300264E-2,3.7402264E-4,-8.543954E-2,-6.266386E-2,2.7573598E-3,-3.1746157E-2,4.9470805E-2,7.6761104E-2,1.2987446E-2],"categories":[],"categories_nodes":[],"categories_segments":[],"categories_sizes":[],"default_left":[0,0,0,0,0,0,0,0,0,0,0,0,0,0,0,0,0,0,0,0,0,0,0,0,0],"id":41,"left_children":[1,3,-1,5,7,9,11,-1,13,15,17,19,21,23,-1,-1,-1,-1,-1,-1,-1,-1,-1,-1,-1],"loss_changes":[2.620045E0,3.2557406E0,0E0,3.0533092E0,4.415848E0,6.8919783E0,5.1087193E0,0E0,2.5000458E0,3.8294284E0,2.9890695E0,1.4573221E0,2.9643967E0,5.020666E-1,0E0,0E0,0E0,0E0,0E0,0E0,0E0,0E0,0E0,0E0,0E0],"parents":[2147483647,0,0,1,1,3,3,4,4,5,5,6,6,8,8,9,9,10,10,11,11,12,12,13,13],"right_children":[2,4,-1,6,8,10,12,-1,14,16,18,20,22,24,-1,-1,-1,-1,-1,-1,-1,-1,-1,-1,-1],"split_conditions":[1.7250592E0,6.56495E-1,5.170399E-2,-4.8849458E-1,-1.1243832E0,4.9536604E-1,2.9794568E-1,-4.3269604E-2,6.0196155E-1,-1.2446907E0,-2.2938538E-1,1.7115074E0,3.7017965E-1,-2.541692E-3,-5.3440803E-3,-4.400155E-2,4.300264E-2,3.7402264E-4,-8.543954E-2,-6.266386E-2,2.7573598E-3,-3.1746157E-2,4.9470805E-2,7.6761104E-2,1.2987446E-2],"split_indices":[4,19,0,19,4,17,17,0,7,25,5,10,7,8,0,0,0,0,0,0,0,0,0,0,0],"split_type":[0,0,0,0,0,0,0,0,0,0,0,0,0,0,0,0,0,0,0,0,0,0,0,0,0],"sum_hessian":[7.613868E1,7.278917E1,3.3495102E0,5.6947193E1,1.5841975E1,2.7836697E1,2.9110498E1,3.6438804E0,1.2198094E1,1.8875689E1,8.961007E0,2.0462936E1,8.647562E0,8.1944895E0,4.003605E0,2.596318E0,1.6279371E1,4.027341E0,4.933666E0,1.8414557E1,2.0483804E0,3.7574341E0,4.890128E0,6.1660423E0,2.0284474E0],"tree_param":{"num_deleted":"0","num_feature":"28","num_nodes":"25","size_leaf_vector":"1"}},{"base_weights":[-6.943936E-4,-3.662984E-1,7.116703E-2,-6.7340165E-2,-0E0,4.866009E-1,-0E0,-2.6259894E-2,2.5311269E-2,2.925807E-3,6.111391E-2,-2.9270732E-1,9.749159E-2,-6.2731326E-1,1.5363584E-1,6.664916E-1,-1.588102E-2,-3.8440868E-3,-6.3067846E-2,-3.658662E-2,5.306599E-2,6.831089E-2,6.9230837E-3,-1.0270073E-2,2.244894E-2],"categories":[],"categories_nodes":[],"categories_segments":[],"categories_sizes":[],"default_left":[0,0,0,0,0,0,0,0,0,0,0,0,0,0,0,0,0,0,0,0,0,0,0,0,0],"id":42,"left_children":[1,3,5,-1,7,9,11,-1,-1,-1,-1,13,15,17,19,21,23,-1,-1,-1,-1,-1,-1,-1,-1],"loss_changes":[2.0960507E0,2.3518934E0,1.9743712E0,0E0,1.0729487E0,1.0936091E0,1.6923208E0,0E0,0E0,0E0,0E0,2.414618E0,2.912708E0,6.924546E-1,2.7966611E0,6.074734E-1,1.303677E0,0E0,0E0,0E0,0E0,0E0,0E0,0E0,0E0],"parents":[2147483647,0,0,1,1,2,2,4,4,5,5,6,6,11,11,12,12,13,13,14,14,15,15,16,16],"right_children":[2,4,6,-1,8,10,12,-1,-1,-1,-1,14,16,18,20,22,24,-1,-1,-1,-1,-1,-1,-1,-1],"split_conditions":[-9.6275634E-1,-5.559395E-1,-9.398693E-1,-6.7340165E-2,-8.810472E-1,-8.950479E-1,-4.0899068E-1,-2.6259894E-2,2.5311269E-2,2.925807E-3,6.111391E-2,4.163059E-1,-3.9168024E-1,-7.89089E-1,-2.822681E-1,3.9770064E-1,1.0084719E-1,-3.8440868E-3,-6.3067846E-2,-3.658662E-2,5.306599E-2,6.831089E-2,6.9230837E-3,-1.0270073E-2,2.244894E-2],"split_indices":[17,0,0,0,4,25,2,0,0,0,0,25,5,0,5,17,9,0,0,0,0,0,0,0,0],"split_type":[0,0,0,0,0,0,0,0,0,0,0,0,0,0,0,0,0,0,0,0,0,0,0,0,0],"sum_hessian":[7.5668526E1,1.1648902E1,6.401962E1,4.3092732E0,7.3396287E0,8.239872E0,5.5779747E1,3.4606297E0,3.878999E0,3.926506E0,4.3133664E0,1.3382473E1,4.2397274E1,7.4290633E0,5.95341E0,5.9747577E0,3.6422516E1,2.1747582E0,5.2543054E0,2.6885304E0,3.2648795E0,3.8498585E0,2.1248994E0,2.726534E1,9.157175E0],"tree_param":{"num_deleted":"0","num_feature":"28","num_nodes":"25","size_leaf_vector":"1"}},{"base_weights":[-8.385815E-3,-5.689249E-2,6.1334416E-2,-5.7369596E-1,1.3763567E-2,-7.347682E-1,-0E0,5.715028E-1,-7.749624E-2,-7.660304E-2,-8.668069E-3,5.7777375E-2,-0E0,-1.4407183E-1,5.1505065E-1,1.1741545E-2,-2.4229368E-2,4.612372E-3,5.660487E-2],"categories":[],"categories_nodes":[],"categories_segments":[],"categories_sizes":[],"default_left":[0,0,0,0,0,0,0,0,0,0,0,0,0,0,0,0,0,0,0],"id":43,"left_children":[1,3,-1,5,7,9,-1,11,13,-1,-1,-1,-1,15,17,-1,-1,-1,-1],"loss_changes":[2.9113517E0,2.789464E0,0E0,7.854235E-1,3.5191584E0,7.2088933E-1,0E0,7.941215E-1,2.3870604E0,0E0,0E0,0E0,0E0,2.577649E0,3.9923942E-1,0E0,0E0,0E0,0E0],"parents":[2147483647,0,0,1,1,3,3,4,4,5,5,7,7,8,8,13,13,14,14],"right_children":[2,4,-1,6,8,10,-1,12,14,-1,-1,-1,-1,16,18,-1,-1,-1,-1],"split_conditions":[1.678884E0,-1.0013573E0,6.1334416E-2,-2.0255466E-1,-8.4140855E-1,-4.0353855E-1,-0E0,-1.8968319E-3,1.630108E0,-7.660304E-2,-8.668069E-3,5.7777375E-2,-0E0,-1.9468531E-1,-7.368321E-1,1.1741545E-2,-2.4229368E-2,4.612372E-3,5.660487E-2],"split_indices":[4,19,0,2,19,25,0,8,19,0,0,0,0,0,4,0,0,0,0],"split_type":[0,0,0,0,0,0,0,0,0,0,0,0,0,0,0,0,0,0,0],"sum_hessian":[7.608572E1,7.303388E1,3.0518308E0,7.6698503E0,6.536404E1,5.54497E0,2.12488E0,8.235366E0,5.7128666E1,3.387692E0,2.157278E0,6.1185966E0,2.1167693E0,5.253064E1,4.598027E0,1.8369635E1,3.4161007E1,2.093248E0,2.504779E0],"tree_param":{"num_deleted":"0","num_feature":"28","num_nodes":"19","size_leaf_vector":"1"}},{"base_weights":[1.16594825E-2,-3.4513402E-1,8.793251E-2,-5.866066E-1,3.181159E-2,1.7699827E-1,-3.6367008E-1,-7.018711E-2,-2.3805071E-1,6.1475426E-1,1.0059486E-1,2.0209193E-2,-5.873723E-1,2.720592E-2,-4.8584837E-2,6.475467E-2,3.6706333E-3,-6.5118305E-2,2.8637186E-1,-0E0,-6.397358E-2,4.2678136E-3,-4.2752795E-2,-2.371914E-2,3.557255E-2],"categories":[],"categories_nodes":[],"categories_segments":[],"categories_sizes":[],"default_left":[0,0,0,0,0,0,0,0,0,0,0,0,0,0,0,0,0,0,0,0,0,0,0,0,0],"id":44,"left_children":[1,3,5,7,-1,9,11,-1,13,15,17,-1,19,-1,-1,-1,-1,21,23,-1,-1,-1,-1,-1,-1],"loss_changes":[2.0196269E0,2.7033868E0,2.5704503E0,6.423063E-1,0E0,1.6068436E0,1.7056226E0,0E0,1.8317153E0,6.7619634E-1,1.4993043E0,0E0,9.85111E-1,0E0,0E0,0E0,0E0,1.5262337E0,2.3119862E0,0E0,0E0,0E0,0E0,0E0,0E0],"parents":[2147483647,0,0,1,1,2,2,3,3,5,5,6,6,8,8,9,9,10,10,12,12,17,17,18,18],"right_children":[2,4,6,8,-1,10,12,-1,14,16,18,-1,20,-1,-1,-1,-1,22,24,-1,-1,-1,-1,-1,-1],"split_conditions":[-9.6032035E-1,7.153623E-1,6.135324E-1,-5.559395E-1,3.181159E-2,-9.398693E-1,-7.7289236E-1,-7.018711E-2,-3.6295912E-1,7.1508425E-1,-9.5888905E-2,2.0209193E-2,-1.3627575E-1,2.720592E-2,-4.8584837E-2,6.475467E-2,3.6706333E-3,9.796124E-1,-4.124297E-1,-0E0,-6.397358E-2,4.2678136E-3,-4.2752795E-2,-2.371914E-2,3.557255E-2],"split_indices":[17,4,23,0,0,0,2,0,19,17,19,0,7,0,0,0,0,10,0,0,0,0,0,0,0],"split_type":[0,0,0,0,0,0,0,0,0,0,0,0,0,0,0,0,0,0,0,0,0,0,0,0,0],"sum_hessian":[7.1985886E1,1.1516221E1,6.046966E1,9.030481E0,2.48574E0,5.1455135E1,9.014527E0,3.526505E0,5.503976E0,5.881097E0,4.557404E1,2.230035E0,6.7844925E0,2.0859275E0,3.4180486E0,3.7780664E0,2.1030307E0,2.4318165E1,2.1255873E1,2.2743564E0,4.510136E0,2.0308077E1,4.010087E0,4.124936E0,1.7130938E1],"tree_param":{"num_deleted":"0","num_feature":"28","num_nodes":"25","size_leaf_vector":"1"}},{"base_weights":[-1.5557989E-2,7.301575E-2,-3.194465E-1,-2.9538444E-1,2.0481806E-1,-4.9283373E-1,3.4860235E-2,1.4516269E-1,-6.4682835E-1,7.132135E-1,5.9775274E-2,-5.013504E-2,-7.7781105E-1,-5.4379776E-2,5.7420954E-2,-6.492428E-2,-3.3982408E-3,7.358784E-2,1.8188253E-3,-1.0076855E-1,4.5192954E-1,-4.3172743E-2,3.4388334E-2,-5.247623E-3,-8.272035E-2,9.549201E-3,-5.411114E-2,-2.650307E-2,6.274697E-2],"categories":[],"categories_nodes":[],"categories_segments":[],"categories_sizes":[],"default_left":[0,0,0,0,0,0,0,0,0,0,0,0,0,0,0,0,0,0,0,0,0,0,0,0,0,0,0,0,0],"id":45,"left_children":[1,3,5,7,9,11,-1,13,15,17,19,21,23,-1,-1,-1,-1,-1,-1,25,27,-1,-1,-1,-1,-1,-1,-1,-1],"loss_changes":[2.113001E0,2.9967914E0,2.6521602E0,2.7044182E0,3.1992965E0,1.7823744E0,0E0,4.6572337E0,8.017769E-1,1.2676678E0,2.4351873E0,2.1710646E0,1.4369912E0,0E0,0E0,0E0,0E0,0E0,0E0,3.6391513E0,3.3542397E0,0E0,0E0,0E0,0E0,0E0,0E0,0E0,0E0],"parents":[2147483647,0,0,1,1,2,2,3,3,4,4,5,5,7,7,8,8,9,9,10,10,11,11,12,12,19,19,20,20],"right_children":[2,4,6,8,10,12,-1,14,16,18,20,22,24,-1,-1,-1,-1,-1,-1,26,28,-1,-1,-1,-1,-1,-1,-1,-1],"split_conditions":[7.1508425E-1,-8.4802544E-1,1.7621002E0,-4.1932842E-1,-8.8437927E-1,-2.4099094E-1,3.4860235E-2,-8.494667E-1,1.0028872E0,3.2068044E-2,5.575367E-1,-3.4532674E-2,-2.1111274E-1,-5.4379776E-2,5.7420954E-2,-6.492428E-2,-3.3982408E-3,7.358784E-2,1.8188253E-3,4.5586267E-1,-3.8550854E-1,-4.3172743E-2,3.4388334E-2,-5.247623E-3,-8.272035E-2,9.549201E-3,-5.411114E-2,-2.650307E-2,6.274697E-2],"split_indices":[17,17,17,19,19,25,0,0,19,17,19,7,2,0,0,0,0,0,0,4,0,0,0,0,0,0,0,0,0],"split_type":[0,0,0,0,0,0,0,0,0,0,0,0,0,0,0,0,0,0,0,0,0,0,0,0,0,0,0,0,0],"sum_hessian":[7.478658E1,5.85358E1,1.625078E1,1.4733594E1,4.3802208E1,1.3747913E1,2.5028675E0,6.8024178E0,7.931176E0,8.265414E0,3.5536793E1,6.2122593E0,7.535654E0,2.6005821E0,4.2018356E0,5.6982765E0,2.2328997E0,5.866636E0,2.3987784E0,2.5824196E1,9.712597E0,3.086406E0,3.1258533E0,2.5952528E0,4.940401E0,1.9414694E1,6.409502E0,2.8057983E0,6.9067993E0],"tree_param":{"num_deleted":"0","num_feature":"28","num_nodes":"29","size_leaf_vector":"1"}},{"base_weights":[-1.9556876E-2,-5.5266406E-2,3.536325E-2,8.077403E-2,-4.9717426E-2,1.6891459E-2,5.006805E-1,-4.3409598E-1,8.716138E-2,-8.376646E-3,6.1715897E-2,-0E0,-6.522992E-2,4.480061E-2,-2.836629E-4],"categories":[],"categories_nodes":[],"categories_segments":[],"categories_sizes":[],"default_left":[0,0,0,0,0,0,0,0,0,0,0,0,0,0,0],"id":46,"left_children":[1,-1,3,5,-1,7,9,11,13,-1,-1,-1,-1,-1,-1],"loss_changes":[2.9255004E0,0E0,2.1711648E0,1.7834706E0,0E0,1.9726675E0,1.6364655E0,1.4528326E0,2.4045012E0,0E0,0E0,0E0,0E0,0E0,0E0],"parents":[2147483647,0,0,2,2,3,3,5,5,6,6,7,7,8,8],"right_children":[2,-1,4,6,-1,8,10,12,14,-1,-1,-1,-1,-1,-1],"split_conditions":[-1.289299E0,-5.5266406E-2,1.6853505E0,1.180839E0,-4.9717426E-2,-1.0792407E0,-2.822681E-1,-5.387831E-1,-8.190282E-1,-8.376646E-3,6.1715897E-2,-0E0,-6.522992E-2,4.480061E-2,-2.836629E-4],"split_indices":[5,0,0,19,0,17,5,19,0,0,0,0,0,0,0],"split_type":[0,0,0,0,0,0,0,0,0,0,0,0,0,0,0],"sum_hessian":[7.508214E1,4.5024586E0,7.057968E1,6.738848E1,3.1911986E0,6.0051086E1,7.337398E0,6.856586E0,5.31945E1,2.4377193E0,4.8996787E0,3.8027604E0,3.0538256E0,7.4902782E0,4.5704224E1],"tree_param":{"num_deleted":"0","num_feature":"28","num_nodes":"15","size_leaf_vector":"1"}},{"base_weights":[-3.391285E-2,-8.212408E-2,4.6513724E-1,-3.61378E-1,3.2345105E-2,6.8363965E-2,-1.8345598E-2,-7.686005E-2,-8.5096225E-2,1.0501026E-1,-4.9441633E-1,4.4315982E-1,-6.374966E-1,5.942111E-1,-2.1213714E-2,-5.9211105E-2,-0E0,-2.4452526E-2,6.0575735E-2,7.546414E-3,-8.2985E-2,6.537406E-2,-4.0202616E-3,-1.7340329E-2,2.8452387E-2],"categories":[],"categories_nodes":[],"categories_segments":[],"categories_sizes":[],"default_left":[0,0,0,0,0,0,0,0,0,0,0,0,0,0,0,0,0,0,0,0,0,0,0,0,0],"id":47,"left_children":[1,3,5,7,9,-1,-1,-1,11,13,15,17,19,21,23,-1,-1,-1,-1,-1,-1,-1,-1,-1,-1],"loss_changes":[1.8465166E0,2.3111806E0,2.177511E0,3.2401931E0,2.0019627E0,0E0,0E0,0E0,5.1391134E0,2.9457753E0,7.800933E-1,2.513029E0,2.749821E0,1.5386543E0,2.918736E0,0E0,0E0,0E0,0E0,0E0,0E0,0E0,0E0,0E0,0E0],"parents":[2147483647,0,0,1,1,2,2,3,3,4,4,8,8,9,9,10,10,11,11,12,12,13,13,14,14],"right_children":[2,4,6,8,10,-1,-1,-1,12,14,16,18,20,22,24,-1,-1,-1,-1,-1,-1,-1,-1,-1,-1],"split_conditions":[1.3483254E0,-5.233306E-1,1.5676104E0,-8.261137E-1,1.1884618E0,6.8363965E-2,-1.8345598E-2,-7.686005E-2,-7.592451E-1,-6.7708343E-1,9.146175E-2,-1.289299E0,-6.881085E-2,5.326367E-1,6.56495E-1,-5.9211105E-2,-0E0,-2.4452526E-2,6.0575735E-2,7.546414E-3,-8.2985E-2,6.537406E-2,-4.0202616E-3,-1.7340329E-2,2.8452387E-2],"split_indices":[4,0,8,17,9,0,0,0,2,19,5,5,17,7,19,0,0,0,0,0,0,0,0,0,0],"split_type":[0,0,0,0,0,0,0,0,0,0,0,0,0,0,0,0,0,0,0,0,0,0,0,0,0],"sum_hessian":[7.445733E1,6.9223465E1,5.2338624E0,1.9439018E1,4.978445E1,3.224147E0,2.009715E0,4.8465962E0,1.4592422E1,4.497157E1,4.81288E0,7.518319E0,7.0741024E0,8.24554E0,3.6726032E1,2.741033E0,2.071847E0,2.1391475E0,5.3791714E0,2.8158777E0,4.258225E0,5.942722E0,2.3028178E0,2.4774347E1,1.1951684E1],"tree_param":{"num_deleted":"0","num_feature":"28","num_nodes":"25","size_leaf_vector":"1"}},{"base_weights":[-4.2692453E-2,-8.48375E-2,5.5909432E-2,-5.329877E-1,-1.7461084E-2,-6.4888865E-2,1.3938316E-2,5.1733285E-1,-1.11136384E-1,5.29501E-2,1.566983E-2,-1.6315473E-2,-4.7184202E-1,9.086705E-3,-2.4866054E-2,-6.383562E-2,1.1681903E-2],"categories":[],"categories_nodes":[],"categories_segments":[],"categories_sizes":[],"default_left":[0,0,0,0,0,0,0,0,0,0,0,0,0,0,0,0,0],"id":48,"left_children":[1,3,-1,5,7,-1,-1,9,11,-1,-1,13,15,-1,-1,-1,-1],"loss_changes":[2.3123958E0,2.0640163E0,0E0,2.0434947E0,3.2094646E0,0E0,0E0,1.620822E-1,1.8253833E0,0E0,0E0,1.8107362E0,2.4973304E0,0E0,0E0,0E0,0E0],"parents":[2147483647,0,0,1,1,3,3,4,4,7,7,8,8,11,11,12,12],"right_children":[2,4,-1,6,8,-1,-1,10,12,-1,-1,14,16,-1,-1,-1,-1],"split_conditions":[1.7250592E0,-1.0013573E0,5.5909432E-2,-2.0255466E-1,-8.4140855E-1,-6.4888865E-2,1.3938316E-2,1.4032012E-1,2.6085457E-1,5.29501E-2,1.566983E-2,5.814817E-1,4.8447233E-1,9.086705E-3,-2.4866054E-2,-6.383562E-2,1.1681903E-2],"split_indices":[4,19,0,2,19,0,0,4,23,0,0,25,19,0,0,0,0],"split_type":[0,0,0,0,0,0,0,0,0,0,0,0,0,0,0,0,0],"sum_hessian":[7.16084E1,6.91421E1,2.4663029E0,7.48774E0,6.1654358E1,5.31757E0,2.1701698E0,8.019492E0,5.3634865E1,4.2216887E0,3.7978036E0,4.3931423E1,9.703442E0,3.0889133E1,1.3042289E1,6.171077E0,3.5323644E0],"tree_param":{"num_deleted":"0","num_feature":"28","num_nodes":"17","size_leaf_vector":"1"}},{"base_weights":[-1.4621658E-2,-5.3772762E-2,2.1546979E-2,6.185506E-2,-4.8711948E-2,2.4762927E-2,5.5475976E-2,1.1159909E-1,-3.80462E-1,3.4894265E-2,-5.868714E-3,-5.291962E-2,2.41182E-3],"categories":[],"categories_nodes":[],"categories_segments":[],"categories_sizes":[],"default_left":[0,0,0,0,0,0,0,0,0,0,0,0,0],"id":49,"left_children":[1,-1,3,5,-1,7,-1,9,11,-1,-1,-1,-1],"loss_changes":[1.8473891E0,0E0,1.8182362E0,1.5117494E0,0E0,2.3799644E0,0E0,3.4582329E0,1.4649E0,0E0,0E0,0E0,0E0],"parents":[2147483647,0,0,2,2,3,3,5,5,7,7,8,8],"right_children":[2,-1,4,6,-1,8,-1,10,12,-1,-1,-1,-1],"split_conditions":[-1.6389666E0,-5.3772762E-2,1.6853505E0,1.6368647E0,-4.8711948E-2,7.9722947E-1,5.5475976E-2,-5.514802E-1,-5.814842E-1,3.4894265E-2,-5.868714E-3,-5.291962E-2,2.41182E-3],"split_indices":[5,0,0,17,0,17,0,19,19,0,0,0,0],"split_type":[0,0,0,0,0,0,0,0,0,0,0,0,0],"sum_hessian":[7.2530136E1,2.550545E0,6.997959E1,6.7194885E1,2.7847095E0,6.508946E1,2.1054177E0,5.470116E1,1.0388305E1,1.9312792E1,3.538837E1,5.7677307E0,4.6205735E0],"tree_param":{"num_deleted":"0","num_feature":"28","num_nodes":"13","size_leaf_vector":"1"}},{"base_weights":[4.6418004E-2,-8.7273955E-2,2.8375664E-1,3.5789862E-2,-6.271002E-2,3.3360813E-3,7.272187E-1,-2.9818755E-1,2.721252E-1,2.0017625E-1,-5.7619896E-2,6.82911E-2,1.7599154E-2,2.0593108E-1,-5.815276E-1,5.0157624E-1,-2.0952213E-1,4.9149388E-1,-3.9060956E-1,-2.7406685E-2,6.700483E-2,-6.729998E-2,-1.7552407E-3,4.081236E-3,6.519603E-2,4.3499928E-2,-7.174813E-2,-2.3953152E-4,5.3188544E-2,-6.1703384E-2,1.2668597E-2],"categories":[],"categories_nodes":[],"categories_segments":[],"categories_sizes":[],"default_left":[0,0,0,0,0,0,0,0,0,0,0,0,0,0,0,0,0,0,0,0,0,0,0,0,0,0,0,0,0,0,0],"id":50,"left_children":[1,3,5,7,-1,9,11,13,15,17,-1,-1,-1,19,21,23,25,27,29,-1,-1,-1,-1,-1,-1,-1,-1,-1,-1,-1,-1],"loss_changes":[2.3288414E0,4.1187296E0,3.209222E0,3.3541071E0,0E0,2.7041526E0,2.5802374E-1,2.7203429E0,2.945369E0,2.9315138E0,0E0,0E0,0E0,3.0043101E0,1.591989E0,2.3204188E0,5.4117727E0,1.0143504E0,1.4515266E0,0E0,0E0,0E0,0E0,0E0,0E0,0E0,0E0,0E0,0E0,0E0,0E0],"parents":[2147483647,0,0,1,1,2,2,3,3,5,5,6,6,7,7,8,8,9,9,13,13,14,14,15,15,16,16,17,17,18,18],"right_children":[2,4,6,8,-1,10,12,14,16,18,-1,-1,-1,20,22,24,26,28,30,-1,-1,-1,-1,-1,-1,-1,-1,-1,-1,-1,-1],"split_conditions":[2.4406374E-1,8.710223E-2,-3.8295162E-1,-5.47065E-1,-6.271002E-2,1.5777627E0,1.2166528E0,-4.609067E-1,2.9032716E-1,4.8887482E-1,-5.7619896E-2,6.82911E-2,1.7599154E-2,-1.0145034E0,6.900782E-1,-1.05885446E-1,1.8280797E-1,-3.126005E-1,1.2043121E0,-2.7406685E-2,6.700483E-2,-6.729998E-2,-1.7552407E-3,4.081236E-3,6.519603E-2,4.3499928E-2,-7.174813E-2,-2.3953152E-4,5.3188544E-2,-6.1703384E-2,1.2668597E-2],"split_indices":[4,9,19,17,0,10,10,19,2,17,0,0,0,17,19,19,7,2,4,0,0,0,0,0,0,0,0,0,0,0,0],"split_type":[0,0,0,0,0,0,0,0,0,0,0,0,0,0,0,0,0,0,0,0,0,0,0,0,0,0,0,0,0,0,0],"sum_hessian":[7.010501E1,4.518152E1,2.4923494E1,3.94853E1,5.6962204E0,1.6332512E1,8.590983E0,1.6024529E1,2.346077E1,1.380131E1,2.531202E0,5.8991365E0,2.6918468E0,5.7863407E0,1.0238188E1,1.5989241E1,7.471528E0,9.52559E0,4.2757196E0,3.3795803E0,2.4067607E0,6.354944E0,3.8832438E0,7.405341E0,8.5838995E0,3.6448493E0,3.826679E0,2.7055993E0,6.819991E0,2.273696E0,2.0020235E0],"tree_param":{"num_deleted":"0","num_feature":"28","num_nodes":"31","size_leaf_vector":"1"}},{"base_weights":[-8.35604E-3,-5.3628594E-1,3.911439E-2,-5.5789273E-2,-8.460922E-3,-5.943199E-3,5.189773E-2,3.1832108E-1,-8.33265E-2,5.3463614E-1,-2.137356E-2,-0E0,-4.6315852E-1,6.0581025E-2,-0E0,6.359342E-3,-5.3099073E-2,-6.8172246E-2,1.4407707E-2],"categories":[],"categories_nodes":[],"categories_segments":[],"categories_sizes":[],"default_left":[0,0,0,0,0,0,0,0,0,0,0,0,0,0,0,0,0,0,0],"id":51,"left_children":[1,3,5,-1,-1,7,-1,9,11,13,-1,15,17,-1,-1,-1,-1,-1,-1],"loss_changes":[1.9357463E0,2.5156343E-1,1.9686358E0,0E0,0E0,1.6648062E0,0E0,1.8519684E0,1.7541101E0,1.1529748E0,0E0,2.4704373E0,2.7847128E0,0E0,0E0,0E0,0E0,0E0,0E0],"parents":[2147483647,0,0,1,1,2,2,5,5,7,7,8,8,9,9,11,11,12,12],"right_children":[2,4,6,-1,-1,8,-1,10,12,14,-1,16,18,-1,-1,-1,-1,-1,-1],"split_conditions":[-1.1943558E0,2.4681304E-1,1.630108E0,-5.5789273E-2,-8.460922E-3,-4.32718E-1,5.189773E-2,1.7693734E-1,8.4830457E-1,7.780639E-1,-2.137356E-2,1.6463072E0,2.2000296E-1,6.0581025E-2,-0E0,6.359342E-3,-5.3099073E-2,-6.8172246E-2,1.4407707E-2],"split_indices":[5,23,19,0,0,23,0,19,7,4,0,11,4,0,0,0,0,0,0],"split_type":[0,0,0,0,0,0,0,0,0,0,0,0,0,0,0,0,0,0,0],"sum_hessian":[7.250184E1,4.880898E0,6.762094E1,2.7063413E0,2.1745565E0,6.4197296E1,3.4236457E0,1.1219768E1,5.297753E1,8.4127E0,2.8070686E0,4.453717E1,8.440359E0,5.4516096E0,2.9610898E0,4.1039696E1,3.4974751E0,5.0529985E0,3.3873606E0],"tree_param":{"num_deleted":"0","num_feature":"28","num_nodes":"19","size_leaf_vector":"1"}},{"base_weights":[-1.7380057E-2,5.6186235E-1,-7.434751E-2,9.9349795E-3,6.029348E-2,7.111832E-3,-3.5879287E-1,-2.9508162E-1,1.4706288E-1,1.6002163E-1,-5.800315E-1,-6.833182E-2,-8.823905E-2,2.1143578E-1,-3.665426E-2,-1.7236313E-2,3.9666045E-2,-1.5895349E-1,-6.3786164E-2,-3.6220454E-2,1.31813325E-2,4.187906E-2,-0E0,-4.6098787E-2,2.6733555E-2],"categories":[],"categories_nodes":[],"categories_segments":[],"categories_sizes":[],"default_left":[0,0,0,0,0,0,0,0,0,0,0,0,0,0,0,0,0,0,0,0,0,0,0,0,0],"id":52,"left_children":[1,3,5,-1,-1,7,9,11,13,15,17,-1,19,21,-1,-1,-1,23,-1,-1,-1,-1,-1,-1,-1],"loss_changes":[2.4250305E0,3.225944E-1,1.6147904E0,0E0,0E0,2.3368368E0,1.9537677E0,1.8031924E0,1.60815E0,9.0156275E-1,7.468772E-1,0E0,1.4774063E0,2.3140166E0,0E0,0E0,0E0,1.5212588E0,0E0,0E0,0E0,0E0,0E0,0E0,0E0],"parents":[2147483647,0,0,1,1,2,2,5,5,6,6,7,7,8,8,9,9,10,10,12,12,13,13,